0.00226804 0.00474227 0.00154639 0.01 0.00556701 0.00907216 0.00350515 0.00701031 0.00876289 0.000206186 0.00453608 0.00319588 0.00788313 0.000826897 0.00659794 0.00680412 0.00917526 0.000206186 0.00474227 0.00154639 0.00824742 0.00175258 0.00896907 0.00371134 0.00391753 0.00371134 0.00298969 0.00927835 0.00773196 0.00958763 0.00525773 0.00329897 0.00701031 0.0043299 0.00297757 0.00818411 -0.00134933 -0.00440425 -0.00130614 0.000608579 0.00807281 -0.00160345 0.0125346 0.0134908 0.00288575 0.00160765 0.00254775 0.00247347 0.00187867 0.0099794 0.00099667 0.00828118 0.0102062 0.00505155 0.00247423 0.00484536 0.00835052 0.00298969 0.000618557 0.00590711 0.00072019 -0.0029435 -0.00546946 -0.00417082 -0.00457517 -0.00981466 0.0184628 0.0903727 0.087704 0.0810405 0.0260063 0.0468959 0.00861174 -0.00155073 -0.0350197 -0.0256094 -0.00924883 -0.0064789 0.00561323 0.00928107 0.00765094 0.000544341 0.00917526 0.00896907 0.00969072 0.00391753 0.0105633 0.0116751 0.000717876 0.0112733 0.0142188 0.0421369 0.0274569 0.0274204 0.123837 0.18974 0.254295 0.37365 0.343886 0.210317 0.0312878 -0.0439494 -0.193787 -0.124252 -0.0188223 4.99592e-05 -0.0171689 -0.010643 0.00662296 0.00907875 0.00199306 0 0.00597938 0.00649485 0.00173846 0.00304483 0.0128936 0.0385627 0.0814898 0.102131 0.0244478 -0.0712716 0.0512028 0.0774854 0.463665 0.540691 0.115594 0.0641693 -0.269733 -0.433572 -0.378954 -0.235159 -0.245836 -0.186044 -0.119882 -0.0651263 0.0248714 0.0182773 0.00434437 0.00707299 0.00608247 0.00773196 0.00163851 0.0231009 0.131448 0.136233 0.335386 0.314872 0.238939 0.363637 0.555841 0.210955 0.232555 0.229363 -0.0590672 -0.0691909 -0.201378 -0.298178 -0.550998 -0.356924 -0.350625 -0.285534 -0.156104 -0.0389342 0.015818 0.0130319 0.00737213 0.00389107 0.00319588 0.00456682 0.00420414 0.050795 0.151788 0.306155 0.42075 0.255414 0.365064 0.597864 0.571535 0.359723 0.234684 -0.135257 -0.282248 -0.363286 -0.12135 -0.0404024 -0.0640631 -0.318094 -0.369954 -0.286792 -0.124685 -0.0448004 -0.000149371 0.0313215 0.0111434 0.00775706 0.00804124 0.00385805 0.00783957 0.0624571 0.182153 0.144999 0.152156 -0.133591 -0.332777 -0.234389 -0.191297 -0.388126 -0.392328 -0.204637 -0.0504236 -0.122417 0.184496 0.165284 0.0295099 -0.271355 -0.385809 -0.361891 -0.169155 -0.123276 -0.0537575 0.0467349 0.012064 0.00069484 0.00577862 0.000879347 0.00768963 0.0650258 0.0964131 -0.0563672 -0.178055 -0.271695 -0.494798 -0.720443 -0.407304 -0.584911 -0.344361 0.192659 0.165723 0.250614 0.221611 0.0789663 -0.0952523 -0.388079 -0.394876 -0.351038 -0.191496 -0.167201 -0.0734831 0.0290453 0.00419024 0.00985329 0.00927835 0.00461996 0.00928264 0.0248496 -0.0508679 -0.209256 -0.319993 -0.511019 -0.645234 -0.681462 -0.285977 -0.286942 0.0399872 0.582072 0.569822 0.436604 0.171029 -0.114045 -0.372661 -0.384052 -0.293184 -0.252409 -0.18981 -0.10471 -0.0362958 0.0251236 0.00558446 0.00465225 0.00175258 0.000878768 0.00593947 0.0215074 -0.088378 -0.167432 -0.26945 -0.458569 -0.497831 -0.23685 0.386415 0.337095 0.472466 0.805401 0.422107 0.0772224 -0.019889 -0.240091 -0.512299 -0.369337 -0.143345 -0.179896 -0.146975 -0.0416287 -0.0118329 0.00644376 0.0119448 0.00261916 0.00896907 0.00620167 0.00818782 0.0163294 -0.0416109 -0.138828 -0.144839 -0.288001 -0.0647996 0.302256 0.443791 0.525819 0.658225 0.2249 -0.0379598 -0.156986 -0.293141 -0.302212 -0.360307 -0.436257 -0.100904 -0.191007 -0.0819623 -0.0585271 -0.0444187 -0.0123862 0.000326747 0.00741083 0.00298969 0.00808533 0.00189297 0.0184655 -0.0296262 -0.022109 -0.0949463 0.094906 0.314751 0.362995 0.206072 0.165003 0.201392 -0.0854288 0.0565789 -0.186258 -0.179062 -0.378697 -0.141532 -0.298278 -0.172143 -0.0142102 0.0189791 -0.0122166 -0.0284348 0.0135819 0.0188612 0.00837411 0.000412371 0.00671696 0.00691142 0.0179719 -0.0604651 -0.0769546 -0.00622132 0.200178 0.325288 0.269056 0.0637049 -0.111144 -0.155675 -0.103807 -0.18151 -0.197132 -0.240025 -0.443667 -0.306977 -0.341725 -0.208077 0.0366339 0.128951 0.0743353 0.00741774 0.0404223 0.0160838 0.00211658 0.000721649 0.00460987 0.00491043 0.00224446 -0.014991 -0.0276249 0.0197457 -0.00165841 0.121162 -0.013517 -0.143649 -0.435095 -0.383765 -0.517136 -0.441054 -0.140344 -0.276564 -0.267499 -0.303342 -0.177944 -0.214596 0.0326187 0.138718 0.258058 0.0464216 0.0362323 0.0390674 0.00418584 0.00742144 0.00560049 0.00905332 -0.00354303 0.0180626 -0.0207439 -0.0306579 -0.149675 -0.273104 -0.251221 -0.255253 -0.573541 -0.496121 -0.358435 -0.373475 -0.092987 -0.0769039 -0.065649 -0.00555672 -0.079924 -0.0278372 0.059189 0.217364 0.222258 0.0965323 0.039761 0.0419608 -0.00102659 0.0030857 0.00485123 0.0100558 -0.0245475 -0.065994 -0.140397 -0.0926377 -0.340017 -0.440211 -0.276062 -0.26275 -0.414475 -0.417721 -0.445664 -0.447345 -0.296715 0.0200958 -0.143546 0.209321 0.145071 0.0117443 0.10647 0.0524458 0.194215 0.13131 0.0242695 -0.00325678 -0.00263611 0.00608247 0.00307394 0.0121876 -0.0133945 -0.152685 -0.106326 -0.123234 -0.314593 -0.337056 -0.125962 -0.0228376 -0.241827 -0.196604 -0.353402 -0.36427 -0.176532 0.0749221 -0.0592285 -0.110528 0.110136 -0.1191 0.134573 0.0727087 0.148627 0.0499614 0.0111854 0.01897 0.00852132 0.00977659 0.000824742 0.00585664 0.000814047 -0.0846206 -0.0254709 -6.39464e-05 -0.150256 -0.155432 -0.148906 -0.0168957 -0.0838047 0.0518537 -0.136701 -0.169714 -0.0776379 -0.0176735 0.0165727 -0.157509 -0.0488178 -0.0695641 0.130469 0.0225905 -0.0484745 -0.00729068 0.0158663 0.0113607 0.0115431 0.00865979 0.01315 -0.0148663 -0.0115167 -0.0685129 -0.0765104 -0.0759283 0.0817046 0.0672269 0.133642 -0.0713695 -0.27711 -0.0215225 0.101955 0.0874117 0.0433081 0.139476 0.0459824 -0.0746239 0.1701 -0.121151 0.0343069 -0.0163754 0.00674772 -0.00443266 0.00678679 0.010863 0.00233593 0.0085567 0.00748053 0.00260859 -0.0055288 -0.0368674 -0.229001 -0.161029 -0.00666398 0.07503 0.197461 0.0865878 -0.167824 0.0574146 0.264212 -0.0176625 0.173084 0.254074 -0.110541 -0.00608941 0.235298 0.0300926 -0.0548437 0.0255352 0.129002 0.0576704 0.0224072 0.0100861 0.0056701 0.00185567 0.000366297 0.00263024 -0.00854429 0.00191521 -0.155478 -0.205585 0.011981 0.00204228 -0.0754742 -0.1014 0.0408631 0.26807 0.0432285 -0.162034 0.199453 0.115997 -0.141899 0.0263418 0.188899 -0.257867 -0.219709 0.0503105 0.109685 0.00143886 0.0200823 0.00191383 0.0042268 0.000309278 0.00804125 0.00699934 0.0451681 0.0573003 -0.0426824 -0.0395394 -0.0378898 0.231684 0.134922 -0.199203 0.0310673 0.28805 0.0913888 -0.214974 -0.0656721 -0.111824 0.0197414 0.143474 -0.13876 -0.160262 -0.0648026 0.0912517 0.0689047 0.0125477 0.00571876 0.007893 0.00412371 0.00597938 0.00350515 0.0083593 0.0257732 0.0388382 -0.0438038 -0.0534412 -0.130089 -0.113825 0.192737 0.273924 0.25356 -0.082086 -0.109834 -0.0513706 0.234251 -0.0201827 0.0717313 -0.046841 -0.00641901 0.0530844 -0.0378372 -0.0443482 -0.0074904 3.50163e-05 0.00334293 0.00853731 0.00216495 0.00226804 0.0057732 0.00922229 0.0153064 0.0320315 0.0279869 0.0413047 0.0363239 -0.000405248 -0.00650593 0.189189 0.231327 -0.0171862 0.00633773 0.113761 0.107424 -0.0344032 -0.0582826 -0.0267651 -0.0888741 -0.0837847 -0.0684468 -0.0330732 -0.0129998 -0.013406 0.00556076 0.00189077 0.0057732 0.00793814 0 0.00604265 0.00741681 0.0114272 0.0165658 0.0429134 0.0763538 0.0569957 -0.0205745 0.0109581 0.0372162 -0.0995376 -0.0923369 -0.139893 -0.185139 -0.159446 -0.0960246 -0.0347752 -0.0164057 -0.0311504 -0.01777 -0.0160713 -0.00188119 0.00973664 0.00257532 0.00352302 0.00185567 0.00628866 0.0085567 0.00793814 0.0099135 0.00631937 0.00140587 0.00632948 -0.00737633 -0.0176334 0.040074 0.00668739 -0.106783 -0.204064 -0.0772129 -0.0797795 -0.0325218 -0.0163962 0.00374719 -0.00846206 -0.0227685 -0.0144152 0.00589949 0.00437268 0.00888891 0.00810493 0.00731959 0.00896907 0.0043299 0.000103093 0.0014433 0.00329897 0.00927835 0.000583967 0.00965608 -0.00310653 -0.0227995 -0.0221838 0.00293627 0.00104052 0.00802711 0.0280777 0.0244252 0.00552581 -0.00154961 0.00605723 0.0104813 0.000118946 0.00441665 0.00496649 0.00813182 0.00284818 0.00126301 0.00721649 0.00896907 0.00329897 0.0071134 0.00453608 0.00371134 0.00814433 0.0028866 0.00484536 0.00546392 0.00134021 0.00876289 0.00123711 0.00402062 0.00938144 0.00721649 0.00278567 0.00814906 0.00329897 0.0043299 0.00742268 0.0043299 0.00917526 0.00309278 0.00742268 0.00659794 0.00835052 0.00237113 0.00453608 0.00886598 0.00298969 0.00948454 0.00484536 0.00989691 0.00443299 0.00340206 0.00453608 0.00226806 0.00734894 0.00354705 0.000619979 0.00118564 0.00117988 0.00871641 0.00759879 0.00790421 -2.11827e-05 0.00105805 0.00560469 0.00950304 0.00312776 0.00704481 0.00699422 0.000574187 0.00682281 0.00333932 0.00257732 0.00762887 0.00257732 0.000412371 0.00628866 0.000721649 0.000515464 0.00453 0.00608799 0.0102417 0.00590567 0.00813953 0.00286034 0.00208437 -0.00558067 -0.00194814 -0.00361924 8.80175e-05 -0.00702375 -0.00656044 -0.00669486 -0.00165655 -0.0017875 0.00412788 0.00279046 0.0119086 0.00710927 0.00294482 0.00425972 0.00215529 0.00752577 0.000103093 0.00865979 0.000618557 0.00104603 0.00902615 0.00851747 0.00141115 0.00119791 0.0100282 -0.00391635 -0.00347452 -0.00660465 -0.00408598 -0.0058983 -0.00472703 -0.0008206 -0.0118777 -0.0110234 -0.0068938 -0.00494636 -0.000480452 0.00413398 0.00760277 0.00598588 0.0076116 0.00820652 0.00738449 0.00135978 0.00443299 0.00474227 0.00474227 0.00320386 0.00366356 0.00400277 0.0102461 0.00138451 0.00787291 0.00299849 -0.000788816 -0.00617115 -0.0175021 -0.0278643 -0.0226075 -0.0209646 -0.0144643 -0.0108104 -0.00650948 -5.92376e-05 0.00575565 0.00301328 0.0086107 0.0161307 0.00825032 0.00145539 0.00896842 0.000288182 0.00504671 0.00762887 0.00608247 0.00482277 0.00302264 0.00201639 0.00631672 0.00366537 0.00411553 -0.00093287 -0.00703727 -0.00636889 -0.0218318 -0.0352497 -0.0512557 -0.00847961 -0.0054698 -0.00257267 -0.00301759 0.000111623 -0.00615722 -0.00684013 -0.00743882 0.000705357 0.00839785 0.00192825 -0.000396382 0.00589137 0.00415536 0.00164948 0.00815172 0.00389522 0.000652159 0.00940618 0.0104555 0.0070032 0.0104532 -0.0100982 -0.0124034 -0.00472569 0.00110809 -0.0147009 -0.0241553 0.00310123 0.0124768 0.0121308 0.0157066 0.00348032 -0.0199218 -0.00872558 0.00521495 0.0125434 -0.00212039 0.000901696 0.00804957 0.0111667 0.00674517 0.00556701 0.00114891 0.00679661 0.0111554 0.00868398 0.00833371 0.0116826 -0.00586276 -0.0234952 -0.0149383 -0.00523574 0.0161713 -0.00259375 -0.0191617 -0.0148329 -0.00320376 0.0130554 0.0161983 -0.007949 -0.00573535 0.00919662 0.00738703 0.00625201 0.00295589 -0.000226251 0.00535409 0.00407159 0.00301373 0.00210026 0.0073056 0.00884899 0.00860004 0.00356178 0.00453211 -0.00304949 -0.000716874 -0.00431848 -0.00853909 -0.00540402 0.013313 0.00610682 -0.0179665 0.0172199 0.0151609 0.00143982 0.013242 -0.0136095 -0.0242754 -0.00799514 0.00404979 0.00359066 0.000221829 -0.00300692 0.00647332 0.00966517 0.0016477 0.00680412 0.00918162 0.00587221 0.00355989 0.00701924 0.000666133 -0.0126681 -0.00965669 -0.0129199 -0.014784 -0.0146065 0.00413964 0.0109827 -0.0196238 -0.00771393 0.00994783 0.00590819 -0.00083435 -0.0123333 -0.0169406 -0.008772 -0.00275742 -0.0118353 -0.0114846 -0.00968916 0.000976309 0.00189933 0.00896793 0.00742268 0.00564679 0.0113313 0.00473351 0.00492748 -0.00189149 -0.0171005 -0.0185341 -0.0133355 -0.0179315 -0.0170665 -0.0052369 -0.0137883 -0.0355715 -0.0329696 -0.00619355 0.00629227 -0.000213509 -0.0226811 -0.0251975 -0.0125306 -0.00314804 -0.020332 -0.0240483 -0.0111863 0.00440689 -0.000885012 0.0052166 0.00309278 0.00158594 0.00909838 0.00848385 0.00600175 -0.0165031 -0.0253394 -0.0131512 -0.0223765 -0.0174961 -0.0130588 0.00274661 0.00683251 -0.0246014 -0.0437966 -0.0154566 -0.000589182 0.0116107 -0.012322 -0.0210893 -0.00133092 -0.0046738 -0.0305084 -0.0285805 -0.0237272 -0.000812752 0.00130922 0.00648441 0.00134021 0.00757155 0.00337782 0.00793219 -0.000703294 -0.0174594 -0.00549528 0.00243514 -0.00646022 -0.0123143 0.00550337 0.0132213 0.00516433 -0.0518975 -0.0465678 -0.0188094 -0.00739775 -0.0078181 -0.0076961 -0.0177888 0.00226595 -0.0110941 -0.0262179 -0.0209177 -0.0230926 -0.000565499 0.00400028 0.00387736 0.00752577 0.00670599 0.00611672 0.00514529 0.00801443 0.00554078 0.0061838 0.00216555 -0.0129149 -0.0131196 0.0181214 0.00179435 -0.00198506 -0.0502971 -0.0436482 -0.0343572 -0.00847358 -0.0155463 -0.0231745 -0.0140767 0.00304681 0.00911834 -0.0109259 0.000174322 -0.0143322 -0.0067146 0.00773855 0.00614531 0.00412371 0.0103805 0.00156069 0.00164875 0.00932409 0.00900315 -0.00722392 0.00160848 0.00593256 0.0141888 0.0134922 0.00867205 -0.00170593 -0.0527979 -0.0528112 -0.0136137 -0.0145546 -0.0184864 -0.0103371 0.0150105 0.0287734 0.0250684 0.00551816 0.0169518 0.00113381 -0.00436726 0.00210031 0.00779893 0.00896989 0.00512478 0.000783636 0.00817855 0.0125039 0.0080795 -0.0018581 -0.00865814 0.00745442 0.00638431 0.0241365 0.00621353 -0.0127647 -0.0651321 -0.0502954 -0.00643636 0.000870999 0.00434983 0.00741639 0.0184174 0.0363499 0.0262519 0.0298984 0.0190839 0.000284917 -0.00653137 -0.000621984 0.00260275 0.00691189 0.00166814 0.00761639 0.00401225 0.00414554 0.00804299 -0.00243733 -0.0044729 -0.00244101 -0.00508152 0.000862721 0.00575341 0.00773118 -0.0265425 -0.0271273 0.0209917 -0.0057257 0.00399425 0.00598649 0.0159102 0.0258457 0.0223748 0.0261726 0.00573755 -0.00476281 -0.00992946 -0.00472286 0.00454996 0.0085567 0.00588641 0.00868999 0.00663995 0.014219 0.0120154 0.00337053 -0.00135773 -0.0164402 -0.0124854 -0.00570094 -0.006122 0.000262127 -0.0302011 -0.0277684 0.0125075 0.0100873 0.0109641 0.0100705 0.0189558 -0.000279284 0.0167406 0.0147288 -0.00649545 -0.0108613 0.000160932 0.00877167 0.00541955 0.000821034 0.0043299 0.00837683 -0.00460186 0.0161443 0.0136554 0.00451309 -0.0167371 -0.0237894 -0.0291328 -0.0214937 -0.0184339 -0.0306874 -0.0495382 -0.0269693 0.0101061 0.0176917 -0.00113641 -0.00218191 0.0144871 0.000795891 0.000455202 -0.0131294 -0.0180278 -0.0104951 -0.00351225 0.003001 0.00448656 0.00783505 0.00267647 0.00899732 0.00155595 0.024585 0.0214275 -0.00279913 -0.0293499 -0.0285727 -0.0220396 -0.00603494 -0.0124173 -0.022209 -0.0411436 -0.0186279 0.00237585 -0.00801309 -0.0141555 -0.00585199 0.0035209 -0.0120988 -0.0180946 -0.0271655 -0.020004 -0.00618375 0.00634499 0.000211436 0.00251364 0.0056701 0.00508066 0.00319915 -0.00186484 0.0173239 0.00620638 -0.0187252 -0.023363 -0.016798 -0.00527987 -0.00692196 -0.00790394 -0.0168874 -0.0348656 -0.0276081 -0.0152632 -0.00906475 -0.0225532 -0.0248578 -0.0110427 -0.0163011 -0.035636 -0.0301365 -0.0139109 -0.00636412 -0.00204135 0.000239516 0.00835052 0.00680412 0.00194342 0.000670981 -0.00640796 0.00176234 -0.00528773 -0.0254425 -0.0223309 -0.0132909 -0.0164249 0.00423819 0.0123754 0.0185902 -0.0173346 -0.018592 -0.0111754 0.00045358 -0.017734 -0.022326 -0.0192319 -0.0222181 -0.0309089 -0.025584 -0.011251 -0.00180797 0.00424901 0.0102544 0.00752577 0.0101031 0.00175259 0.00482326 0.00121176 -0.00389693 -0.0140335 -0.0185369 -0.0178896 -0.0115852 -0.00627457 -0.000444752 -0.00228948 0.0112732 0.000889924 -0.00610724 -0.00322657 0.00943125 -0.0035515 -0.0300461 -0.0193342 -0.0217041 -0.0239968 -0.0126319 -0.00716541 0.00149057 0.00580795 0.003837 0.00206186 0.00824742 0.00917526 0.000330226 0.0043999 0.00681391 0.00819009 0.0155422 0.00980261 -0.00863991 -0.00126614 0.0173684 0.0198885 0.0105779 0.00403033 -0.00595926 -0.0174796 -0.0177588 -0.01695 -0.0366601 -0.0260079 -0.023158 -0.0139452 -0.00196046 -0.000370902 0.0035588 0.0070102 0.00308825 0.00515464 0.00927835 0.00979381 0.00187875 0.00358232 0.0154588 0.0198599 0.0331707 0.0367031 0.024353 0.0139708 0.0108209 0.0161099 0.00576349 0.00135701 -0.0251612 -0.029728 -0.0249419 -0.0218966 -0.0247088 -0.0228808 -0.012378 -0.000371963 -0.00242979 -0.00328376 0.00381926 0.00454392 0.00972388 0.00762887 0.000618557 0.00247423 0.000727381 0.00270701 0.00829502 0.00918891 0.00820298 0.0120009 0.0162638 0.0221957 0.0133652 0.00882193 0.00996998 -0.00193964 -0.0100735 -0.0181227 -0.0186777 -0.0203937 -0.0067628 -0.00276539 -0.00570296 -0.00290737 0.00816959 0.00345773 0.00764966 0.00973093 0.00394537 0.000412371 0.00917526 0.00876289 0.000824742 0.00919402 0.00586292 0.00201877 0.00229134 0.00443851 0.00189227 0.00491917 0.000301676 -0.000132712 0.00301001 0.00207111 0.006746 0.0031366 -0.000234861 0.000176901 0.00189547 0.00700048 0.00282857 0.00958838 0.000914866 0.00316614 0.00897182 0.00525773 0.00742268 0.00969072 0.00350515 0.00484536 0.0042268 0.000618557 0.00655031 0.0101395 0.00829215 0.00859505 0.00626528 0.00309215 0.00708319 0.00478514 8.66901e-05 0.00258137 0.00380683 -0.000301426 0.00114036 0.00147151 0.0102313 0.00755553 0.00131738 0.00468888 0.00331267 0.00162512 0.00886598 0.000927835 0.00350515 0.00546392 0.00536082 0.00474227 0.00546392 0.000206186 0 0.00298969 0.000618557 0.00649485 0.000721649 0.00731959 0.00969072 0.0028866 0.000909167 0.00641501 0.000412371 0.00412371 0.00628866 0.00443299 0.00226804 0.00907216 0.00453608 0.00237113 0 0.00865979 0.00536082 0.0043299 0.00608247 0.00690722 0.00463918 0.00237113 0.0057732 0.00639175 0.00618557 0.00804124 0.000440711 -0.000933261 0.00418975 -0.000625829 -0.00362995 -0.00949487 -0.0191413 0.00135287 0.00454996 0.00494639 -0.00706466 -0.00127209 0.00495538 -0.00307651 0.00284255 0.00752929 0.00686865 0.00391277 0.00762887 0.0043299 0.00309278 0.000927835 0 0.00494845 0.00845361 0.00173752 0.00477046 0.00610324 0.0056848 -0.00262069 0.0035818 -0.00917791 -0.0236644 -0.0255501 -0.0290719 -0.018407 -0.0157759 -0.00859052 -0.00285525 0.000289866 0.00040923 0.00403579 0.00811629 0.000892347 0.00688152 0.00180684 0.00493534 0.00053824 0.000412371 0.00721649 0.00793814 0.00237113 0.00808433 0.00530149 0.00242253 0.0112122 0.00694682 0.0144546 0.00580729 -0.034746 -0.0335612 -0.0638915 -0.0736146 -0.095438 -0.0851661 -0.0664199 -0.0252675 -0.00076236 -0.00339647 -0.0175816 0.000816254 -0.000931856 0.00356496 0.00137474 0.00812723 0.00351014 0.00634259 0.00845361 0.000721649 0.00989691 0.00668615 0.00913895 0.00743973 0.00493131 -0.0131927 -0.0134566 -0.0227751 -0.0198523 -0.0317134 -0.040059 -0.0237716 -0.00363572 -0.0366211 -0.0461165 0.0314406 0.0291629 0.00578521 0.0118727 0.0359118 0.0573869 0.073819 0.0527456 0.027649 0.0109371 0.00576018 0.0057795 0.00113402 0.00154639 0.00687903 0.000554012 0.00394571 0.00682586 -0.0335429 -0.0278806 -0.0253659 -0.00553957 -0.018234 0.0159055 0.0253914 -0.0383776 -0.0283852 0.0305089 0.0471729 0.0344113 -0.00165567 0.00399972 0.0171194 0.0585424 0.0971579 0.0705239 0.0340891 0.0107943 0.00920044 0.00609322 0.00525773 0.00501378 0.00980101 0.00842566 -0.00145129 -0.00169072 -0.00966804 0.00146792 0.027798 0.00682658 0.0470863 0.0377646 0.00715396 -0.0310656 0.0213932 0.0637244 0.0557338 0.0258839 -0.0149794 0.0201522 0.019169 0.0612297 0.101702 0.0854168 0.0350948 0.004816 0.0057358 0.00187402 0.00824742 0.00517306 0.00211745 0.00230537 -0.00642384 -0.00335545 -0.0202768 -0.0617212 0.0106804 0.0389615 0.0441188 0.0150862 -0.0534969 -0.0647028 -0.11939 -0.0659168 -0.00108694 -0.00704966 -0.0427293 -0.0272505 -0.00234894 0.0743579 0.0825856 0.0721234 0.0253037 0.0160801 0.0147202 0.00683987 0.00619444 0.00184526 0.00184352 0.00652499 -0.00797905 0.00048532 -0.0108117 0.00439792 -0.00242637 0.0477233 -0.00871322 -0.0647155 -0.0825559 -0.0461532 -0.122244 -0.116316 -0.0630162 -0.0327144 -0.00183123 -0.016533 0.000188516 0.0698208 0.1052 0.0367313 0.0649295 0.0286761 0.00547145 0.00780461 0.0101031 0.00828179 0.00364983 0.0105165 -0.0022735 0.012459 0.00980562 0.00346687 -0.028653 -0.0896808 -0.107568 -0.111574 -0.0572625 -0.0382078 -0.10042 -0.122807 -0.0578111 -0.00883068 0.00547107 -0.0284019 0.0288023 0.093296 0.0449482 0.0207435 0.0359558 0.0184222 0.00521185 0.00227078 0.00773196 0.00768146 -0.00367377 0.0235095 0.00419248 -0.0021833 0.0394112 -0.00265985 -0.0596507 -0.131574 -0.0910515 -0.03346 0.0344185 -0.0556506 -0.0844839 -0.0358797 0.0149276 -0.0114202 -0.0199505 -0.0672271 -0.0398254 0.00978902 0.0705476 0.021261 0.00895203 0.0149311 0.0158055 0.00292826 0.00927835 0.00155424 0.00471636 0.0285921 0.0337586 0.0176644 0.0408837 0.00204919 -0.0475898 -0.000256408 0.0459968 0.00394138 0.0494128 -0.0608025 -0.0582904 0.0063766 0.0518366 -0.000967445 -0.0995735 -0.0829866 -0.0906743 -0.017572 0.0450954 0.0174681 0.0182207 0.0183419 0.0190954 0.00917408 0.0057732 0.00827042 0.00342216 0.0403834 0.0244801 -0.0187892 -0.0143933 0.00685093 -0.0431408 0.0185265 -0.0171729 0.0171764 0.0484594 0.0114657 -0.0284799 0.0150621 0.0100564 0.00331539 -0.0169016 -0.0629427 -0.0417083 0.00875764 0.0491757 0.0337917 0.00832975 0.00700309 0.00860365 0.00071803 0.00350515 0.00827341 0.00497808 -0.00410733 0.0161262 0.00187493 -0.0127581 -0.0629013 -0.0538708 -0.0275233 -0.00860383 0.0611546 0.01721 -0.0924043 -0.105848 -0.00645099 0.00311342 -0.008232 0.0464827 -0.00706127 -0.0127928 0.0201468 0.0474337 -0.0285915 -0.0174409 -0.0071725 -0.00726787 0.00684235 0.00845361 0.00758874 0.00387894 0.00576013 -0.00321901 0.0257668 -0.0182839 -0.0676624 -0.0845447 -0.074783 0.00956026 0.0398306 -0.0264827 -0.0807665 -0.0506896 -0.0498576 -0.0104717 0.0596313 0.0394309 -0.0580348 -0.0447517 0.00408847 0.0395883 -0.0567784 -0.0308132 -0.0037396 -0.00431651 0.0039852 0.00608144 0.00564161 0.0011382 0.00968293 0.00278877 -0.0279436 -0.0228184 0.00246766 -0.0478451 -0.062512 -0.00904847 -0.0228109 -0.0149349 -0.0262029 -0.0269341 -0.0438471 0.0189555 0.117759 0.0141756 -0.144323 -0.0889759 0.0240723 0.0602307 -0.0397008 -0.0357796 0.000115428 0.00668114 0.00734236 0.000200303 0.0051786 -0.00221936 -0.00494519 -0.00980746 -0.0600625 0.00255336 0.0240014 -0.0398817 -0.0491586 -0.00562192 -0.0444969 -0.0191555 0.0101632 0.00554985 0.0432732 0.0903365 0.034194 -0.059413 -0.1141 -0.00737758 0.0358237 0.0378514 -0.0150675 -0.0356124 -0.012956 -0.00231373 -0.00158089 0.00505155 0.00821274 0.000886521 -0.0147999 -0.0207436 -0.0184644 -0.00134369 0.0307085 0.0326757 0.0494915 -0.0362777 -0.0392202 -0.0330279 0.0206034 0.0156818 0.000922996 0.0104408 -0.0417684 -0.0619349 -0.109876 0.0172502 0.0836515 0.0419806 -0.0143339 -0.0114193 -0.00898803 0.00130948 0.00777241 0.00704987 0.0056701 0.00710566 -0.0327842 -0.0398329 -0.0315535 -0.0196004 -0.00685563 -0.00364184 -0.0129394 -0.0125795 0.005021 -0.000673021 -0.035779 -0.0603839 -0.0766515 -0.0403269 -0.0481492 -0.105538 -0.0862609 -0.0281242 0.00713463 -0.0357857 -0.0406795 -0.0244666 -0.0331491 0.00521185 0.00111396 0.00618557 0.00205999 0.010376 -0.0339283 -0.0549228 -0.0372246 -0.0523386 -0.0262958 -0.0518109 -0.0817551 -0.128362 -0.117521 -0.088158 -0.0911069 -0.113513 -0.0804011 -0.0528029 -0.0408091 -0.103139 -0.0735926 -0.074973 -0.0305324 -0.0262263 -0.0186741 -0.0179206 -0.0219376 0.00434507 0.00727523 0.0056701 0.0041937 0.00291688 -0.033802 -0.0590888 -0.0525349 -0.0717351 -0.0563461 -0.0561969 -0.0842719 -0.111927 -0.175503 -0.117792 -0.123303 -0.08337 -0.063943 -0.0719563 -0.086546 -0.149898 -0.0952356 -0.0584582 0.0380725 0.0483837 -0.0123261 -0.0151012 0.00224287 -0.00212836 0.00938144 0.00484536 0.00252682 0.00701014 -0.0181589 -0.0368338 -0.0391479 -0.0295931 -0.0341976 0.00294704 -0.0222347 -0.0727591 -0.0982282 -0.104876 -0.120845 -0.0839853 -0.0565215 -0.0895108 -0.0832448 -0.131732 -0.0739659 0.0167343 0.0626948 0.0510497 -0.0177043 -0.0205076 -0.00661721 0.00220924 0.00618557 0.00845361 0.00226804 0.00343349 0.000684166 -0.0267635 -0.0476435 -0.0058764 -0.000709094 0.00113385 -0.0194165 -0.0486645 -0.0509864 -0.0464226 -0.0788396 -0.0341438 -0.0785381 -0.0689699 -0.0691294 -0.0943366 -0.073655 0.00174861 0.0841758 0.0579212 0.0257784 -0.0102765 0.00225511 0.00518242 0.00690722 0.00793814 0.00319588 0.000788027 -0.00588838 -0.015813 -0.0233009 -0.030667 -0.00560143 0.0258911 0.0285705 0.0118993 0.00394595 -0.0139054 -0.0253788 -0.0344949 -0.0147164 0.0249577 -0.0158844 -0.0382245 -0.0572182 -0.000467098 0.0659654 0.0465718 0.0496599 -0.00228327 0.00128729 0.00752722 0.00257732 0.00628866 0.00783505 0.00914847 -0.00278139 -0.0113436 -0.0210494 -0.030816 -0.0239579 -0.00912855 0.0257647 0.0473847 0.0558625 0.0195474 0.038325 -0.019454 0.0280434 0.0698461 -0.0238548 -0.0514397 -0.0403458 0.0188584 -0.00123493 0.0365399 0.0397883 -0.00283425 -0.00221289 -0.00011356 0.0085567 0.00845361 0.00247423 0.00523466 0.00182196 0.00195559 -0.00289632 -0.00395064 -0.023647 -0.0392919 -0.0180247 -0.00619184 -0.0321933 -0.0301179 -0.000381136 0.00476047 0.0243968 0.0182553 -0.025867 -0.0406228 -0.0879814 -0.0274217 0.00257392 0.0026112 0.00465084 0.00623209 0.00221826 0.000890341 0.000824742 0.00391753 0.00402062 0.00835052 0.00562004 0.00401211 0.00418408 0.00944124 0.0160908 0.0127661 0.00227405 0.00557528 -0.00187579 -0.00117462 0.00501684 -0.00991883 -0.0191735 -0.0146994 -0.0213781 -0.0462346 -0.061287 -0.00247177 0.000440726 0.00311871 0.0102276 0.00970006 0.00752577 0.00835052 0.00298969 0.00628866 0.00731959 0.00268041 0.00237113 0.00153142 0.00583873 0.00137897 0.00887151 0.00844696 0.00804366 0.00432606 0.0107813 0.00428866 0.00725247 0.00460317 0.00626169 0.0082013 0.00190005 0.00493754 0.00132337 0.0102579 0.00568612 0.0033096 0.0012224 0.000309278 0.0085567 0.00123711 0.0101031 0.00391753 0.00505155 0.00340206 0.00907216 0.00783505 0.0071134 0.00247423 0.00701031 0.00608247 0.01 0.00113402 0.00556701 0.0092806 0.00629358 0.00731959 0.00206186 0.00103093 0.0014433 0.00618557 0.0102062 0.00412371 0.00319588 0.00309278 0.00329897 0.00463918 0.00195876 0.0014433 0.00360825 0.00556701 0.0071134 0.00474227 0.00896907 0.00670103 0.00587629 0.0038403 0.00839491 0.00271908 0.00806219 0.00871657 0.00657269 0.00209315 0.0068257 0.00974337 0.0133438 0.00122846 0.00662326 0.00167591 0.00345475 0.00695694 0.00687379 0.00635662 0.00853559 0.00958763 0.00515464 0.00773196 0.00948454 0.000309278 0.00298969 0.0102062 0.00978631 0.00369955 -0.00272113 0.00147339 -0.00158744 -0.00460128 0.00190648 0.00396051 -0.0019186 -0.0058754 -0.0018449 0.000620788 -0.00281037 -0.010093 -0.00298582 -0.00928381 -0.0039675 0.00256265 -0.000541441 -0.000272704 0.000803357 0.00907303 0.00375601 0.00690722 0.00546392 0.00113402 0.00628866 0.00358518 0.0062138 -0.00325838 -0.00112874 -0.00234141 0.0101686 0.0168022 0.00767203 0.00852479 0.00207294 0.00747921 0.0010324 0.00228994 0.00750701 -0.00401172 -0.0119733 -0.00339864 0.000126786 -0.00762981 -0.00645298 -0.00845577 -0.000938591 0.00733748 0.00133316 0.00252215 0.00103093 0.00474227 0.00309278 0.00192352 0.00764196 0.00568485 -0.00925494 -0.00585512 0.0140114 0.021656 0.0171219 0.0163746 0.0123988 0.0242175 0.0185294 0.00764783 0.00210599 0.00625422 0.000758127 -0.0136515 -0.013627 -0.00932703 -0.00757764 0.00782538 0.00740042 -0.00107843 -0.00155692 0.00188308 0.00262114 0.00216495 0.00989691 0.00213518 0.0107734 0.00718377 -0.00214982 0.00614982 0.0289178 -0.0051567 -0.0212332 -0.0164328 -0.0254096 -0.0398196 -0.0449374 -0.0251158 -0.0124383 -0.0165269 -0.030468 -0.0352143 -0.00880999 -0.000489173 0.0106505 0.0123048 0.00364809 -0.00433755 0.00169467 0.00146491 0.00176076 0.0057732 0.00177567 0.00342013 0.00482759 0.0112878 -0.00633206 -0.00171025 0.00629009 -0.0023739 -0.00151893 -0.00566263 -0.0335604 -0.0529219 -0.0494952 -0.0268602 0.00187096 -0.00923424 -0.0327326 -0.025339 -0.0198515 -8.50112e-06 0.0135667 0.0182152 0.0223972 0.00653812 0.00778786 0.0028799 -0.000516375 0.00360825 0.00334806 0.00652665 0.00122984 0.00946193 0.00310373 -0.00825075 0.0120301 0.0159914 -0.00158686 -0.0183804 -0.0272402 -0.0422202 -0.0352932 -0.0118728 0.0181701 -0.0242078 -0.0581434 -0.0464872 -0.0141369 -0.0068594 0.00780752 0.0117091 -0.000445299 -0.00444361 -0.00553994 0.000233256 -0.000451076 0.00557829 0.00273788 0.00673256 0.0116326 0.0140861 0.00771088 0.00137983 0.00822857 0.0113635 0.0133908 -0.00414518 -0.0314554 -0.0318671 -0.026741 -0.0244539 -0.014467 -0.0362709 -0.0546041 -0.0234021 -0.0081897 -7.72821e-05 -0.00225286 0.00386492 -0.0186539 -0.0182979 -0.00744114 0.00840698 0.00244382 0.00938144 0.0018459 0.00892007 0.00937907 0.0163656 0.00632105 0.00347808 0.00555823 0.000396507 0.00844526 0.0022791 -0.0148461 -0.0361195 -0.0372401 -0.0298441 -0.00549846 -0.0220853 -0.0202644 -0.00553953 0.00787029 0.00409241 -0.00819932 -0.00956933 -0.00838783 -0.0173745 -0.00512279 0.00187486 0.000130518 0.000927835 0.00776179 0.00841449 0.00951549 0.0100051 0.00272546 -0.000310314 -0.00471715 -0.013248 -0.0243306 -0.0219381 -0.0430063 -0.0434366 -0.0332523 0.00152289 0.0020378 0.00773409 0.0225483 0.0243483 0.0428177 0.0221646 -0.00287328 -0.000326432 -0.0164276 -0.00822747 -0.000732739 0.00355971 0.00092442 0.00680412 0.00838892 0.00630881 0.00364695 0.00653652 -0.00884135 -0.00704411 -0.0133122 -0.0219485 -0.0144281 -0.0359505 -0.030187 -0.0110686 -0.00354756 0.0140251 0.00316894 3.01369e-05 -0.00039142 0.00977913 0.0209885 0.0257512 -0.00905432 -0.0034275 0.000997751 0.00571007 0.0076305 0.00873264 0.00128537 0.00845361 0.00231262 0.0072163 0.00487909 -0.00149538 -0.00627487 -0.0252019 -0.0151182 -0.0237531 -0.0147554 -0.0353466 -0.018135 0.00199325 0.021668 0.040378 0.0224184 0.0298526 0.0140579 -0.00349003 0.0160242 0.0028843 -0.00595236 0.00240825 0.00114804 0.00599517 0.0113725 0.00376428 0.00626486 0.00154639 0.00140541 -0.00117783 0.00384733 -0.0019197 -0.0210141 -0.025328 -0.0276968 -0.019085 -0.0196636 -0.0383486 -0.0284614 -0.00189995 -0.00161991 0.0218598 0.029314 0.0337724 0.0133383 0.00387861 -0.0131876 -0.0214815 -0.00683051 -0.00469939 -0.00338734 0.0117985 0.00674241 0.00917156 0.00319196 0.00865979 0.00280957 0.00310697 0.00607397 0.000808027 -0.0264424 -0.0267835 -0.0343128 -0.0110414 -0.0027163 -0.0143747 -0.014504 0.000547292 0.00513012 0.0540669 0.0352176 0.0249834 0.0146308 -0.0150523 -0.0301565 -0.0275437 -0.0108323 -0.00227094 -0.000813455 -0.00162213 0.00621012 0.0113846 0.00341231 0.0020627 0.0104061 0.0100117 0.0099469 -0.00177393 -0.00327501 -0.015804 -0.0257288 -0.0196143 -0.0048287 -0.0151553 -0.00672321 0.000108883 0.0274842 0.0769293 0.0350811 0.0012614 -0.0247866 -0.020009 -0.0124161 -0.0151177 -0.00736927 0.00448951 -0.00408717 -0.00391655 0.0091008 0.00833836 0.00558541 0.000417215 0.00255292 0.00178852 0.00504265 0.00749881 -0.00324285 -0.00419645 -0.0147735 -0.0222066 -0.000947178 -0.0107545 -0.00611902 -0.0055283 0.0142879 0.0267831 -0.021298 -0.0377988 -0.0310095 -0.00790207 0.0202237 -0.0152882 -0.0107795 0.0115477 0.0111655 0.00741857 0.0102933 0.00799312 0.00183673 0.00969072 0.00456693 0.010757 0.0070131 0.0122278 0.00216492 -0.00322781 -0.0185858 0.00164349 -0.0100202 -0.0212194 -0.0261607 -0.00916943 -0.0138303 -0.00533797 -0.0175517 -0.0191656 -0.0188316 -0.0178305 0.0308748 0.000804083 0.000617951 0.00831721 0.0128775 0.0101919 0.015716 0.00785662 0.00364177 0.00494927 0.00979381 0.00390345 0.0122743 0.00489831 -0.00139232 -0.00451027 -0.0103632 -0.00308018 -0.00588641 -0.0238679 -0.0237654 -0.0119917 -0.0202741 -0.018248 -0.0117105 -0.0131653 -0.0134481 0.00692295 0.0325693 0.0246582 0.00899029 0.00836685 0.0125405 0.0124871 0.00806732 0.00946794 0.00232211 0.00835052 0.00213629 0.00328047 0.0197422 0.00313753 -0.00764441 -0.00742247 0.00950728 0.00450296 0.00814479 -0.0182531 -0.0170028 -0.0221177 -0.0245892 -0.0312539 -0.0147804 -0.0206278 -0.0270133 -0.00295939 0.014544 0.0115038 0.0119367 0.011984 0.00796796 0.0058652 0.00751374 0.00473587 0.0100432 0.00793814 0.00434607 -0.000386001 0.0138127 0.0257374 0.0130585 0.0147614 0.0235416 0.00499662 -0.0171129 -0.0261423 -0.00307256 -0.0142702 -0.0247431 -0.0152439 -0.0199619 -0.0287214 -0.0284522 0.00587944 0.0221646 0.0127343 0.0185101 -0.00593627 -0.0046042 0.0026009 0.00449195 0.00948797 0.00835052 0.00845361 0.000116664 0.00308663 0.0142493 0.0197977 0.0150633 0.00893305 0.00670919 -0.00491066 -0.0241381 -0.0209377 -0.00378404 -0.00184289 -0.0244281 -0.0174148 -0.00902761 -0.0116792 0.00492367 0.0228395 0.0231622 0.00514139 -0.00722139 -0.00770083 -0.00429605 0.000831809 0.00190663 0.00666417 0.00123711 0.00958763 0.00525774 0.00013301 0.0101857 0.0148625 0.0170301 0.0146792 -0.000499437 -0.023291 -0.0117842 -0.0110253 -0.0164198 -0.0120073 -0.00693246 -0.012064 0.00763183 0.0178402 0.0258965 0.0286249 0.00300553 0.00448271 -0.00798594 -0.00898822 0.00063874 0.00627582 -0.000182067 0.00611882 0.000721649 0.00226804 0.00969072 0.00868239 0.0063747 0.0126883 0.0208791 0.0169561 0.00559128 -0.00722061 -0.0109261 -0.0188808 -0.0248866 -0.0323319 -0.00210851 -0.0248767 -0.00522912 -0.0015228 0.000136561 0.0261791 0.0215715 0.0104418 -0.00943593 -0.00472435 0.00810722 0.00826892 0.0060107 0.00758481 0.00793814 0.00329897 0.0102062 0.00693449 0.00799263 0.00460126 0.0124002 0.00948811 0.00590356 0.00534444 -0.00318663 -0.0133931 -0.0141879 -0.00624697 0.00527163 -0.0187288 -0.00841334 -0.00422747 -0.00815986 0.000910747 -0.0031478 0.00290597 9.73543e-05 0.00756725 0.00900555 0.00475534 0.00493024 0.00137847 0.0102062 0.00989691 0.00494845 0.00462552 0.0101322 0.00877791 0.00200845 0.010878 0.0115555 0.0200169 0.01907 0.0109785 0.00437821 0.00700099 0.0079526 0.00177521 -0.0107879 -0.0211376 -0.0091546 -0.00655592 0.00659504 0.00122511 -0.000412464 -0.00256315 0.00786191 0.00911889 0.00807634 0.00138221 0.00701031 0.00206186 0.000412371 0.00701031 0.00542869 0.000681927 -1.58125e-05 0.00125746 0.00927199 0.00613379 0.0057095 -0.000468253 -0.00419879 -0.00702737 -0.00431092 -0.00275733 -0.00467575 0.00458844 0.0017746 -0.000552835 0.000375516 0.001843 0.000352176 0.00163932 0.00307822 0.00906766 0.00474227 0.00742268 0.00268041 0.00608247 0.00391753 0.0028866 0.00917526 0.00700072 0.00214058 0.00544933 0.00467128 0.010393 0.0074529 0.00491826 0.00372706 0.00854838 0.00350309 0.00797275 0.00635228 0.00430953 0.00730678 0.00223883 0.00249027 0.00326639 0.00940253 0.0034069 0.0035399 0.00680412 0.00268041 0.00474227 0.00639175 0.00195876 0.00670103 0.00752577 0.00484536 0.00381443 0.00371134 0.000927835 0.00865979 0.00134021 0.000824742 0.00463918 0.00185567 0.00639848 0.00203194 0.00824742 0.00536082 0.00979381 0.00103093 0.00216495 0.00257732 0.00185567 0.00402062 0.000103093 0.00958763 0.0042268 0.00948454 0.00958763 0.00680412 0.00402062 0.00525773 0.00319588 0.00865979 0.00525773 0.00453601 0.00154538 0.00281208 0.009257 0.00608623 0.00200146 0.0100736 0.0146822 0.00311502 0.00491673 0.0148187 0.0181674 0.0105113 0.00966328 0.00736784 0.00482809 0.00580214 0.00988278 0.00795513 0.00989691 0.0101031 0.00979381 0.00835052 0.00721649 0.00402062 0.0101031 0.00986024 0.0103036 0.00430024 0.00328155 0.00674727 0.00244579 -0.0297049 -0.0594411 -0.0547178 -0.0600079 -0.109826 -0.159215 -0.077655 -0.0240102 -0.00129159 -0.00187017 0.00761688 -0.00303593 0.00500003 0.00842913 0.00446558 0.00923198 0.00273689 0.00402062 0.00804124 0.00443299 0.00597938 0.00796826 0.00784533 0.00924135 -0.0103967 -0.0151109 0.00414298 0.0584715 0.020464 -0.0780424 -0.0844065 -0.0841521 -0.0843382 -0.101401 -0.032778 0.0739375 0.100547 0.0209723 -0.00972636 -0.0140581 -0.0141316 0.0187924 0.0323456 0.0042743 0.00825727 0.00643778 0.00783505 0.000309278 0.00824742 0.00885038 0.00472855 0.0122553 -0.00247277 0.00400098 0.052049 0.0423464 -0.0203198 -0.0996653 -0.044469 -0.147042 -0.123162 -0.117397 -0.0246848 0.0246873 -0.0117763 0.0637329 0.10861 -0.00252104 -0.0644631 -0.00637934 -0.0486601 -0.0328589 -0.00205805 -0.000651157 0.00762704 0.00979381 0.00814433 0.000818959 0.00632313 -0.0217675 -0.03822 -0.0196443 -0.0291332 -0.0517734 -0.0908264 -0.0179412 -0.196963 -0.26584 -0.204622 -0.221895 -0.262714 -0.211363 -0.236852 -0.175022 -0.193193 -0.270905 -0.132611 -0.136367 -0.108725 -0.029085 0.00761763 0.00671382 0.0100845 0.00721649 0.00382999 0.010112 0.0115238 -0.0580516 -0.0303623 0.0295922 0.00481583 -0.0309885 -0.132447 -0.0497597 -0.0733732 -0.0390889 -0.000420935 0.0289301 -0.0433267 -0.070296 -0.123146 0.0382766 0.0383226 -0.00795838 -0.095678 0.0819091 -0.0539215 -0.0251612 -0.014368 0.00587416 0.0056208 0.000618557 0.00376849 0.00899702 0.0178843 -0.0311683 0.0305005 0.0845089 0.0100378 -0.124709 -0.0423977 -0.057314 -0.00140657 -0.011976 0.00562896 0.147825 0.300609 0.278044 0.215901 0.188289 0.168008 0.216705 -0.0315533 0.239532 0.0785335 -0.0866173 -0.0934311 -0.0489302 0.00861497 0.00525234 0.00958228 0.00882763 0.0139294 -0.0207143 -0.0116247 -0.0272038 -0.146797 -0.0817838 0.0265045 -0.196979 -0.221421 -0.137877 0.130949 0.290094 0.37261 0.292991 0.32749 0.256564 0.0506585 0.193768 0.0868942 0.22878 0.154145 0.000690946 -0.082926 -0.00773891 0.00541042 0.000309278 0.0036663 0.0124656 0.0130433 -0.0781019 0.0529302 0.00895517 -0.20098 -0.132425 -0.10378 -0.331508 -0.494934 -0.177472 0.129785 0.288611 0.194282 0.0732672 0.21446 0.208738 -0.0309702 0.0256118 0.0236858 0.205911 0.217914 0.170645 -0.0140051 -0.00918339 0.00572552 0.00216495 0.00985134 0.0114844 0.0214542 -0.0326199 0.148542 -0.00364626 -0.229249 -0.198682 -0.251903 -0.382763 -0.285359 -0.0698006 -0.02519 0.0733199 0.172808 0.256313 0.291285 0.0659172 -0.289037 -0.100835 -0.0798952 0.108136 0.262222 0.223645 -0.0217384 -0.0117435 0.00703458 0.00216495 0.00672013 0.00983071 0.0187639 0.0151619 0.111639 -0.0467541 -0.137952 -0.143362 -0.174811 -0.178847 0.0300223 -0.0307641 -0.158805 -0.20663 -0.109351 -0.0938444 -0.0508359 -0.0858122 -0.268679 -0.18289 0.140149 0.213244 0.250964 0.192322 -0.0732514 -0.0138481 0.00641706 0.00298969 0.00453247 0.0111068 0.0217461 0.038059 0.143443 0.0778294 -0.070805 -0.0541649 -0.189822 0.0462256 0.0652026 -0.197602 -0.304404 -0.288969 -0.238942 -0.395901 -0.381581 -0.31444 -0.226464 -0.301363 -0.00980053 0.252728 0.249336 0.099109 -0.0866261 -0.00107099 0.0101111 0.00587629 0.00854258 0.0046897 0.0170653 -0.00660253 0.317155 0.155177 0.0796458 -0.0757598 0.00642232 0.00844434 -0.250851 -0.332764 -0.295838 -0.284971 -0.48107 -0.437875 -0.27052 -0.28805 -0.229203 -0.247005 0.0385522 0.284941 0.300292 0.0935304 -0.0398611 5.23565e-05 -0.000887158 0.00247423 0.00629612 0.0111254 0.00294532 -0.0214226 0.414585 0.221428 0.14756 0.049905 0.0409689 -0.0575579 -0.300621 -0.348201 -0.458378 -0.461915 -0.29936 -0.230786 -0.277 -0.344636 -0.371898 -0.202594 0.203815 0.406863 0.474073 0.220919 -0.019326 0.00793717 0.00790058 0.00917787 0.00512997 0.0090217 -0.00759927 0.0186017 0.35495 0.38479 0.217564 0.097267 0.0103941 -0.125931 -0.28546 -0.375938 -0.61668 -0.557534 -0.356389 -0.185982 -0.194297 -0.213818 -0.334138 -0.111264 0.361629 0.427181 0.435461 0.164143 -0.0164507 0.00670256 0.00536991 0.00424172 0.00299475 0.0043333 -0.0063971 0.0602838 0.323926 0.436572 0.162592 0.107486 -0.077528 -0.137986 -0.250334 -0.36584 -0.514903 -0.481235 -0.348619 -0.325984 -0.305429 -0.113694 -0.140431 -0.054612 0.218067 0.306147 0.145274 0.0781084 -0.0412816 0.00532251 0.000818942 0.00206186 0.00506066 0.00513649 -0.011481 0.0775875 0.441739 0.280908 0.272373 -0.0447664 -0.220977 -0.160462 -0.298871 -0.518097 -0.559273 -0.489696 -0.249794 -0.301586 -0.220839 -0.129238 -0.20081 -0.06622 0.0918706 0.203242 0.0633158 0.00964053 -0.058814 0.00787713 0.00753292 0.0100352 0.00793814 0.00700974 -0.00847849 0.181206 0.36314 0.249802 0.0531242 0.0187622 -0.222496 -0.199855 -0.262634 -0.311307 -0.338415 -0.261978 -0.112625 -0.185439 -0.208389 -0.0714968 -0.0877167 0.0566337 0.185805 0.161636 0.0236784 -0.0338327 -0.0456556 0.00792484 0.000640375 0.00938144 0.00719697 0.0023326 0.0204132 0.296102 0.531337 0.325108 0.0968544 0.240084 0.120606 0.0111398 -0.151591 -0.174669 -0.123662 -0.159883 -0.197609 -0.186321 -0.128739 0.0759281 -0.0177941 -0.0116363 -0.0613739 0.0433323 -0.0140821 -0.00707961 -0.0177109 0.00652787 0.00725957 0.00721649 0.00691146 0.0109565 0.0282865 0.171581 0.436906 0.276014 0.0201238 0.202578 0.269081 0.0364435 -0.0246956 -0.138126 0.0612606 -0.0816733 -0.147257 -0.0252447 0.109298 0.0302352 -0.191465 -0.1487 -0.0497332 0.0109479 0.000625192 -0.0019213 0.00821326 0.0123897 0.00175258 0.00824742 0.00374949 0.00685944 0.0164048 0.0472883 0.198706 0.0669147 0.134993 0.052575 0.126138 0.0828206 0.0254026 -0.0887256 -0.129933 -0.110723 0.026159 -0.0526858 -0.089972 -0.081342 -0.262748 -0.0503467 0.00459597 -0.0856433 -0.0744105 -0.00172627 0.0120604 0.00908251 0.00587629 0.00659794 0.00938149 0.0118265 0.00528282 -0.109426 0.015517 -0.0284742 -0.0533769 -0.0284986 0.0354228 -0.0563271 -0.0861388 -0.116062 0.00306565 0.0108543 0.0218859 -0.0459647 -0.0875289 -0.14136 -0.0519968 -0.040625 -0.102059 -0.102746 -0.110721 -0.0200205 0.0100136 0.00701714 0.00525773 0.00443299 0.00597938 0.00947597 -0.00464652 -0.122175 -0.11926 -0.0129277 -0.016505 -0.0614246 -0.0229296 0.0555354 0.0732295 -0.0552757 -0.0995615 -0.0428948 -0.154494 -0.324481 -0.251125 -0.213603 -0.126663 -0.202981 -0.175454 -0.0943191 -0.0566405 -0.0015732 0.0107493 0.0104286 0.00134021 0.00463918 0.0043299 0.00174439 0.0164783 -0.0199593 0.00696344 0.0338288 0.161879 0.0994444 0.058135 0.0482628 -0.140227 -0.208599 -0.196162 -0.153805 -0.186705 -0.219506 -0.0850669 -0.106347 -0.0925363 -0.057891 -0.0558238 -0.0196196 -0.00134987 0.00440944 -0.000439471 0.007889 0.00865979 0.00742268 0.00958763 0.00297196 0.00610487 0.0146687 0.0238412 0.0219794 0.0503328 0.051589 0.0545552 -0.0381082 -0.000368663 0.0574364 0.00862937 0.00233167 -0.0327893 -0.00397169 -0.0109669 0.0206694 0.0250215 -0.00756567 -0.0198526 0.00139275 0.00583305 0.0100023 0.0002123 0.00167706 0.00494845 0.000206186 0.00113402 0.00226804 0.00193842 0.00488965 0.00819323 0.00457325 -0.00665823 -0.012433 -0.0374299 -0.0203406 0.00465593 0.044528 0.0126996 0.0354564 0.0441169 0.00180307 0.0217393 0.0389239 0.0265829 -0.00742441 -0.00902874 -0.0212175 0.00414859 0.00906788 0.01 0.00185567 0.0057732 0.00546392 0.0056701 0.00371134 0.0042268 0.00720936 0.00745685 0.00614426 0.00279336 -0.00211342 0.000646178 0.00305091 0.00170268 0.00827205 0.00345048 0.0085476 -0.0247934 -0.025803 0.00128248 0.00960598 -0.00132748 -0.0316212 -0.00768248 -0.0283121 0.00336271 0.00546392 0.00536082 0.00721649 0.00515464 0.00721649 0.00618557 0.00309278 0.00948454 0.00164948 0.00381443 0.000618557 0.00340206 0.00185567 0.00556701 0.00319588 0.0042268 0.000132612 0.00973585 0.00412371 0.0014433 0.0043299 0.00608247 0.000927835 0.00793814 0.00185567 0.00969072 0.00907216 0.00979381 0.00752577 0.00536082 0.00989691 0.000824742 0.00969072 0.00659794 0.00443299 0.00360825 0 0.0056701 0.00130419 0.00861814 0.00726783 0.00356318 0.00889576 0.00350452 0.00408231 0.00578987 0.00817672 0.00366328 0.00300879 0.00807455 0.009473 0.00790216 0.00117504 0.00774855 0.000845864 0.00135559 0.00824742 0.00824742 0.00381443 0.000515464 0.00123711 0.00845361 0.00886598 0.00108861 0.00967718 0.00730396 0.00316472 0.00791813 -0.00153039 0.00315563 0.00414627 0.00397618 -0.00385162 -0.0012368 -0.00135983 -0.00457582 -0.0092313 -0.0032893 0.00576579 -0.0025938 -0.000623915 0.00196521 -4.32996e-05 0.00133612 0.00799418 0.00567619 0.00618557 0.00721649 0.000206186 0.000309278 0.00313151 0.00863625 -0.000807596 0.0056217 0.00437021 0.00622779 -0.0014735 0.00900295 0.00800468 -0.00163948 -0.00330763 -0.00357775 -0.0124591 -0.0294971 -0.0229852 -0.024226 -0.00994404 -0.00422243 -0.0176223 -0.0044896 -0.00230628 -0.00200696 9.22313e-05 0.0098895 0.00318163 0.00494845 0.00402062 0.00649485 0.00808638 0.00343695 0.00616991 0.00172801 0.00114661 -0.00280504 -0.011002 -0.00117078 -0.00798274 0.0131384 0.00817066 -0.013546 -0.0364799 -0.0619949 -0.0516642 -0.0302907 -0.0230952 -0.0161324 -0.0238618 -0.0255454 -0.000988488 0.0154755 0.00739704 0.00737235 0.00929422 0.00682539 0.000103093 0.00680412 0.00178796 0.0020674 0.000468537 -0.00240146 -0.00194742 -0.00733647 0.00369719 0.00599034 0.0218875 0.0257884 -0.000917711 -0.0331514 -0.00779405 0.0108647 0.0190794 0.0193094 -0.00117247 0.00227888 -0.00130412 -0.000857804 0.00954013 0.00755097 0.00509687 0.0110804 0.00821029 0.00850412 0.00206186 0.0081361 0.00185906 0.00543674 -0.00361544 -0.00880993 -0.0194232 -0.0130616 -0.0120866 -0.0100844 -0.0314861 -0.0279991 -0.0468924 -0.0201966 0.0354131 0.0483877 0.0404473 0.000388372 -0.000694589 0.00794465 -0.00570581 0.00194688 -0.00133033 -0.00112653 -0.00256727 -0.0021059 0.00497676 0.00895108 0.000721649 0.00032618 0.00345582 -0.00453746 -0.00709569 -0.00680259 -0.0203144 -0.0253503 -0.0100028 -0.0275967 -0.0470693 -0.0292267 -0.0619609 -0.0574037 0.00348608 0.00307761 -0.0384272 -0.0455204 -0.019541 0.000279301 -0.00472113 -0.0122566 -0.024356 -0.0168926 0.00306392 0.00952637 0.00239115 0.00613965 0.00903239 0.0031853 0.00647479 0.00330869 -0.0034378 -0.0147021 -0.0135765 -0.0250956 -0.000506294 -0.0275545 -0.0376056 -0.0438089 -0.0596266 -0.0435572 -0.0346028 -0.060449 -0.0689656 -0.0743842 -0.0346461 0.0318062 0.0149769 -0.00066886 -0.0235486 -0.0256123 0.00913011 0.0049749 0.00808911 0.00180364 0.00268041 0.00121109 -0.00171342 -0.00481518 -0.0181663 -0.00140769 -0.007278 -0.0023181 0.0003355 -0.0066733 0.00305827 -0.00121381 -0.000616056 -0.0154111 -0.0529868 -0.0123535 -0.0304778 -0.0381843 -0.00118904 0.0182884 0.0219477 -0.00543523 -0.00958432 -0.0127894 0.00811759 0.00582381 0.00655095 0.00420578 0.00474227 0.0069931 0.000682695 -0.0011281 -0.00980468 -0.0129407 0.00717276 0.02755 0.0176842 0.0129808 0.0296074 0.0429387 0.0541116 -0.044938 -0.0707435 -0.0662674 -0.0517233 -0.0539563 -0.0201121 0.0117186 0.00478224 -0.0200354 -0.017329 -0.00254799 0.0183616 0.0111587 0.010546 0.00945987 0.00670103 0.00396085 0.00474779 -0.00158112 0.00144714 0.00639427 0.0269208 0.00237646 -0.00569389 0.0297795 0.0596436 0.0535571 0.017666 -0.0702027 -0.116328 -0.0791036 -0.0450866 -0.0305618 0.00785363 0.0261014 0.0158434 -0.00246766 -0.00438222 -0.00855865 0.00949451 0.0114006 0.00318487 0.0026806 0.00587629 0.00561197 0.000156781 0.00260398 0.00112597 0.0144694 0.0196208 -0.0216599 -0.013801 0.0544574 0.0561301 0.0347028 -0.0402581 -0.0861852 -0.0829037 -0.0624017 -0.0355098 0.000104474 0.00882741 0.00775096 -0.00967921 -0.00331725 0.002635 -0.00880736 -9.59718e-05 0.00348288 0.00277089 0.00223183 0.00587629 -8.78617e-07 0.00424794 -0.00215872 0.0172502 0.0220935 -0.00376935 -0.00164487 0.0260787 0.0479626 0.0240768 -0.0135658 -0.0148935 -0.0250744 -0.03009 -0.0230175 0.000500732 0.0197155 -0.0131876 -0.0215157 -0.00831315 -0.00585831 -0.000112776 -0.0243003 -0.00646215 0.0080271 0.00720536 0.00241053 0.00164948 0.00520529 0.00856585 0.00125183 0.0136766 0.0115944 -0.000189751 -0.00785416 0.0116245 -0.0248128 -0.0531242 -0.0484267 -0.00835368 0.029739 0.00747625 0.0244538 0.0102866 -0.0196412 -0.0211313 -0.0280837 -0.0229595 -0.0242651 -0.00486057 -0.0140818 -0.00387208 0.00801857 0.00414333 0.000210584 0.00876134 0.00513716 0.00360999 0.00146234 0.0162715 -0.000853853 -0.00594048 -0.0146672 -0.0244325 -0.0525565 -0.0386988 -0.0228179 -0.0103418 -0.00846357 -0.0504355 -0.0271321 0.00995025 -0.0188361 -0.00947551 -0.00684061 -0.0322655 -0.0180716 -0.0185405 -0.0153966 -0.00626183 0.0126372 0.00428973 0.00989759 0.00689836 0.000517883 0.00821724 0.00641679 0.0145004 0.00977846 0.000806142 -0.0104205 -0.00583251 -0.0424459 -0.00384743 0.0133427 -0.019303 -0.0591913 -0.0613182 -0.0350378 0.000379887 -0.0265117 -0.0215987 -0.0110473 -0.0171332 -0.00563547 -0.00490543 0.00056106 -0.00181866 0.00755187 0.0107125 0.00696252 0.00731959 0.0035379 0.00506852 0.0108522 0.0104881 0.0254152 0.00625093 -0.0145319 -0.00235295 -0.0113351 0.0165598 -0.0191508 -0.0459539 -0.0479539 -0.0561731 -0.0172312 -0.0288579 -0.0490271 -0.0116362 -0.0130497 -0.00443144 0.000123584 -0.0110715 -0.0114997 -0.00304122 0.0110956 0.00524068 0.00379662 0.00913103 0.00742268 0.00700896 0.00611328 0.0143112 0.0296798 0.0257815 0.0243435 -0.0100452 -0.0251152 0.000761796 -0.03187 -0.048823 -0.0292421 -0.00932918 -0.0331019 -0.0335207 -0.0260787 0.00779008 0.0167188 0.021308 0.00749369 -0.00104158 -0.000870103 0.0110653 0.00340822 0.00620439 0.0092466 0.00659794 -0.000512187 0.00630805 0.0112057 0.0170133 0.030301 0.0291373 0.00149078 -0.0234899 -0.053726 -0.0531336 -0.0560944 -0.0162338 -0.00899612 -0.0388669 -0.0711285 -0.026255 0.00536588 0.025685 0.0086849 0.0165397 0.0163598 0.0189932 0.0203182 0.0220053 0.0114251 0.0105114 0.00516309 0.00845361 0.00723785 0.0053599 0.0103506 0.0209518 0.0281109 0.0162959 -0.00283696 -0.0166042 -0.0494198 -0.0804952 -0.0547859 -0.0164542 -0.0545846 -0.111431 -0.0406136 0.00982655 0.0061635 -0.000339878 0.00282034 0.00250089 0.0109295 0.0321669 0.0328581 0.0287904 0.00224951 0.00947327 0.00701031 0.00484536 0.00921998 0.00334095 0.000725517 0.00416704 0.011838 -0.00779289 -0.0116308 -0.0177599 -0.0158584 -0.0440036 -0.0345698 -0.0364209 -0.0900184 -0.0940955 -0.035466 -0.00759402 -0.0319758 -0.0270307 -0.0226791 -0.0081407 0.0252838 0.0332616 0.0369047 0.023093 0.00931485 0.00127814 0.00793814 0.00412371 0.00701032 0.0040063 0.00594924 -0.0012226 -0.013636 -0.0148395 -0.00985165 0.00949586 -0.00331698 -0.00422123 -0.00339986 -0.0184921 -0.0465588 -0.0458162 -0.065656 -0.0266194 -0.0192239 -0.0376576 -0.00967107 0.0119793 0.0250868 0.0244031 0.025929 0.0186248 0.00421513 0.00731147 0.00340206 0.00525773 0.00134021 0.00216543 0.00389955 -0.00493847 0.00275489 -0.00385902 0.00610699 0.0287066 0.00384696 -0.00603325 0.0189298 0.0060457 -0.0106589 -0.0402401 -0.0589113 -0.00628242 -0.0039586 -0.0139353 0.00813382 0.0233358 0.0378761 0.0313075 0.0232482 0.0114634 0.00653191 -0.000179145 0.00783505 0.0028866 0.00463918 -0.000267113 0.00122854 0.00253658 0.0063062 0.0110552 0.0394351 0.0527252 0.0246456 -0.00544899 -0.0245135 -0.00448885 0.0135524 -0.0437186 -0.0175892 0.0215041 0.0122555 -0.0192476 -4.65865e-05 0.026489 0.02895 0.0222518 0.0158009 0.0131202 0.0101214 0.0077751 0.000206186 0.00237113 0.00670103 0.00855588 -0.000200207 0.00849459 0.00833345 0.0223231 0.0328765 0.0264114 0.00508154 -0.00890341 -0.0442124 -0.0168735 -0.0173096 -0.0311357 -0.000374774 -0.000112538 -0.0003137 -0.0138415 -0.000883838 0.0192138 0.0165267 0.00800113 0.00403817 0.00465846 0.00705004 0.00726403 0.000206186 0.00494845 0.00649485 0.00206186 0.000947549 0.00458862 0.0105743 0.0261406 0.0187836 0.000674434 -0.00341879 -0.00272089 0.0171034 0.0142039 0.00804967 0.0132696 0.0161849 0.00872569 0.00676021 0.0046328 0.0087066 0.00982693 0.00447547 0.00263811 0.00865927 0.0035232 0.00659794 0.00164948 0.00474227 0.00979381 0.000103093 0.00350515 0.0028866 0.00573731 0.00841442 0.000591371 0.00312455 0.000222312 0.00616326 0.006942 -0.000687604 0.00448766 -0.0020039 0.00833742 -3.62321e-05 0.00500911 0.00768958 0.00634774 0.00512686 0.00936431 0.0041623 0.00442232 0.00320036 0.0057732 0.00587629 0.00123711 0.00773196 0.00463918 0.00680412 0.00453608 0.00865979 0.0071134 0.0014433 0.00206186 0.00845361 0.00731959 0.00742268 0.00412371 0.0056701 0.00545031 0.00399083 0.0101031 0.00536082 0.0028866 0.00525773 0.00237113 0.0043299 0.00195876 0.00835052 0.00752577 0.000309278 0.000309278 0.00804124 0.00783505 0.00206186 0.00154639 0.00979381 0.00319588 0.00546392 0.00628866 0.00402062 0.0100776 0.00393055 0.00917079 0.00485524 0.00344669 -0.000355755 0.00267179 0.00925768 0.00779225 0.00653405 0.00884985 0.00033121 0.0045563 0.00205957 0.00185819 0.00380761 0.00552642 0.00602174 0.00298969 0.00876289 0.000721649 0.00505155 0.00917526 0.00340206 0.00185567 0.00773703 0.00753915 0.0036267 0.00835209 0.00938496 0.00676168 0.00365945 0.00124159 0.00472411 0.00555221 -0.0025714 -0.00646889 -0.0112673 -0.0011994 -0.000750204 0.00255473 -0.00359231 0.00333295 -0.0021357 0.00716187 -0.000569997 0.00311774 0.00664253 0.00907216 0.00845361 0.0071134 0.00340206 0.00561049 0.00464016 0.00869703 0.00846951 0.0055345 0.00979896 0.00688827 0.00384082 0.0025908 0.00372797 -0.000639704 0.00339811 0.000919301 -0.0100639 -0.01949 -0.0103436 0.000637275 -0.000881292 0.00530554 0.0015988 0.00482346 0.00306538 0.00579919 0.00514134 0.00424641 0.0071134 0.00463918 0.00381443 0.00387583 0.00843184 0.00470335 0.00448553 0.00726948 0.00227443 0.00791563 0.0104654 0.00339858 -0.0020204 -0.0064077 -0.00712426 -0.0233118 -0.0229196 -0.0464456 -0.0268854 0.00304007 0.00268896 0.00328145 0.000297524 -0.00407635 0.0111442 0.0161369 0.0162047 0.0051584 0.00191582 0.00752577 0.00793814 0.00633281 1.55951e-05 -0.000541442 -0.00364014 -0.00384061 0.00606654 0.011996 0.0139494 0.0189623 0.00153423 -0.0551969 -0.0480508 -0.0217224 -0.0334034 -0.0238604 -0.0136187 -0.00519838 -0.0230529 0.00409687 -0.00766416 0.0101893 0.00233195 0.00891142 0.0159761 0.00702275 0.00277904 0.00134021 0.00887385 0.00605232 -0.00418184 -4.45232e-05 -0.00675843 0.00193121 0.0104349 0.0196686 0.0053835 0.00677209 -0.000145369 -0.0334628 -0.00683617 0.0250348 -0.0094087 -0.00135962 -0.00114307 0.0134982 -0.00216759 -0.01147 -0.0140651 0.00925334 -0.00417772 0.0016142 0.013822 0.00831163 0.00572525 0.00226804 0.00486756 0.006037 -0.00276373 -0.00150787 -0.00724304 0.0108923 0.0209499 0.00599307 0.0056427 0.0160655 0.0199386 -0.00181182 -0.00687305 0.0216273 0.00997157 0.0217399 0.014544 0.000580208 0.00834919 0.0304532 0.00376863 0.00200353 -0.0213183 -0.0114641 0.0162311 0.00737433 0.00305735 0.00936926 0.00896357 0.0101304 -0.00389185 -0.00724591 0.00534891 0.00583459 0.000717104 0.0187654 0.0246694 0.0187787 0.0227729 -0.00964324 -0.0629432 0.0022964 0.0303401 0.0116014 0.0143254 -0.0117506 0.00454422 0.0284006 0.00637977 0.00335178 0.0027094 -0.00807033 0.0171143 0.0106409 0.00150947 0.0071134 0.00486731 0.00460976 -0.000270922 0.00226935 0.00101189 0.00259252 -0.0102198 0.00744491 0.00830844 -0.00327263 0.0143618 0.0076909 -0.060792 -0.03712 -0.0135509 -0.0374855 -0.0443404 -0.0489145 -0.0339587 -0.00125078 0.00317003 0.00237331 0.00250628 0.0121254 0.0155556 0.00938539 0.00014851 0.00443299 0.00244985 0.00529134 0.00910602 -0.00304613 -0.00224557 -0.0072954 -0.0193428 -0.0109358 0.0033128 -0.0301097 0.00867664 -0.00643202 -0.0443369 -0.0590004 -0.0487414 -0.0297925 -0.0513469 -0.0522689 -0.0587619 -0.0291621 -0.0273666 -0.0251617 -0.0157317 0.01239 0.0164318 0.00986221 0.00296647 0.00360825 0.00764142 0.0106659 0.0052019 0.00379047 -0.0171118 -0.0303354 -0.0379367 -0.0339204 -0.0316205 -0.0272634 0.00780682 -0.0212556 -0.0715463 -0.0828616 -0.0416405 -0.0148928 -0.0253888 -0.0152942 -0.0459229 -0.0369671 -0.0443552 -0.0472734 -0.0357708 -0.00905726 0.0138749 0.008701 0.00213792 0.000412371 0.0102488 0.0101209 0.00199015 0.00287614 -0.020791 -0.0305017 -0.0213148 -0.00240965 -0.0223996 0.0104893 0.00441808 -0.0600511 -0.107723 -0.0812705 -0.0338899 -0.0216598 -0.0319238 -0.0282962 -0.0281641 -0.0233311 -0.0469605 -0.0544322 -0.0460589 -0.0192838 0.00482763 0.0116406 0.00442276 0.00134021 0.00415154 0.00029886 0.00706381 -0.00108087 -0.0155406 -0.0183166 0.00733684 0.000314071 -0.00383767 0.0159616 -0.0190936 -0.046414 -0.0556555 -0.0361169 -0.0526775 -0.0222284 -0.0300786 -0.0251109 -0.0258098 0.00543783 -0.0145125 -0.0367209 -0.0275422 -0.0100941 0.00497986 0.00731305 0.00623307 0.0056701 0.00410064 0.00307275 0.000430248 0.00117179 -0.0116602 -0.00231125 0.019514 0.0157153 0.00147945 -0.0232211 -0.0542517 -0.0539206 -0.0621521 -0.0395912 -0.0139424 -0.0280697 -0.0360373 -0.0162883 -0.0054934 0.0341721 0.00319101 -0.012584 -0.00735501 0.00415206 0.00194766 0.00802885 0.000807862 0.000616688 0.0100788 -0.000602484 0.00151756 0.00269424 -0.000251685 0.0164967 0.00886469 0.00100185 -0.0266454 -0.0252681 -0.0413473 -0.0523596 -0.0966519 -0.0871205 -0.0304183 -0.0160882 -0.0018599 0.00405598 -0.00719315 0.0102193 0.0048891 -0.00750287 0.00396395 0.0064566 0.000354792 0.0040424 0.00136756 0.00225737 0.0077693 0.00642094 0.00475614 0.0155786 0.0104958 0.00280104 -0.00469408 -0.0148762 -0.0492011 -0.035683 -0.0425146 -0.0341901 -0.0505989 -0.0418028 -0.00973599 -0.0142371 0.00524976 0.0039999 0.0056136 0.00752073 0.0221596 0.00829952 0.00327672 0.0110617 0.0155895 0.00637684 0.00402892 0.00505155 0.00537372 0.00318293 0.00867886 0.0289264 0.0153294 0.000865924 -0.0137551 -0.0299586 -0.0375351 -0.0325135 -0.0471667 -0.0399718 -0.0430465 -0.0515043 -0.000147002 -0.0159251 0.015483 0.0104965 0.00703095 0.0185521 0.0213795 0.00169587 0.0174324 0.0171587 0.0139062 0.0119662 0.00741225 0.0101571 0.00154639 0.0030166 0.0146924 0.0275879 0.0072478 -0.000618207 0.0075301 -0.0150213 -0.0415365 -0.0395712 -0.0437832 -0.0613331 -0.0766162 -0.037256 -0.00582148 -0.00136198 0.0163583 0.0122758 0.0107487 -0.000843797 0.0119602 0.012592 0.00829118 0.0220741 0.0132697 0.00235831 0.000764255 0.0042268 0.005554 0.00284609 0.0160229 0.0176448 0.00664749 0.00214652 -0.0112642 0.0118839 -0.0232322 -0.0207601 -0.0284614 -0.0313161 -0.0414187 -0.0262993 -3.06322e-05 0.00450644 0.0135455 -0.00404693 -0.00920372 -0.00066937 0.00899231 -0.00660576 0.0122463 0.0163094 0.00645709 0.00822705 0.004953 0.00804124 0.00195225 0.00788583 0.0167452 0.0191313 0.00896058 -0.0117105 -0.0254235 0.000368504 0.00917566 -0.00142724 0.00527238 0.00326674 -0.0175945 -0.0309277 -0.00152505 0.00964404 0.00106974 -0.0227837 -0.0195737 -0.0165594 -0.00612213 0.0164835 0.0194638 0.0177572 0.0036776 0.00536145 0.00969072 0.00690722 0.00227262 0.0057239 0.00576264 0.0207122 -0.00894651 -0.0377676 -0.0317915 -0.0272477 -0.00639174 0.0060984 0.00190005 0.0135716 -0.0184262 -0.0249806 -0.0175517 -0.00933771 -0.0134302 -0.0187752 -0.0203351 -0.0238769 -0.00232671 0.0121293 0.0185033 0.0132907 0.00800137 0.00561541 0.00360825 0.00268041 0.00350517 0.004365 0.00479011 0.0159356 0.00624089 -0.0327158 -0.0325382 -0.0244977 -0.0122377 0.00932636 0.0187162 0.0244274 -0.030985 -0.0460684 -0.0635426 -0.0184445 0.00783099 -0.0216992 -0.024987 -0.0158083 -0.0112458 0.00719973 0.0166823 0.011428 0.00771443 0.00927695 0.00350515 0.0042268 0.00865979 0.00197819 0.00827393 0.00835574 0.0169429 0.0125644 -0.00414073 -0.0139835 0.00592277 0.0348646 0.0378206 -0.0110285 -0.0622701 -0.0640339 -0.053332 -0.0191032 -0.0215526 -0.0292204 -0.0315543 -0.0258147 0.00240458 0.00823087 0.0118322 0.0151775 0.00235595 0.00146246 0.0042268 0.00443299 0.00835052 0.00231685 0.00232945 0.0082568 0.00527811 0.0122054 0.0227149 0.0286022 0.020705 0.0170183 0.000551008 -0.0104022 -0.0129667 -0.0362703 -0.0217394 -0.016514 0.00881624 0.00478222 -0.0173977 -0.00130542 0.009118 0.0084376 0.00255344 0.00326923 0.0110504 0.0078972 0.00896907 0.00979381 0.00443299 0.00320765 0.00283341 0.00806915 -0.00185426 -0.00609877 0.00044075 0.000668753 0.00418411 -0.00424294 0.0022857 0.0137883 -0.00458926 -0.0121231 -0.0010519 0.0148547 0.00650707 -0.000268048 0.0030568 0.00442912 0.00162028 0.00507261 0.000357474 0.00820111 0.00715809 0.00842424 0.00670103 0.00690722 0.00608247 0.000309278 0.00426095 0.000433643 0.00266477 -0.00346332 0.00743908 0.00135163 0.00605982 0.00155967 0.00598106 0.00999299 0.0200326 0.0207775 0.0213406 0.0188995 0.0115042 0.00992747 0.0106592 0.00459788 0.00424252 0.00293968 0.00343003 0.000218221 0.00639175 0.00350515 0.00154639 0.0085567 0.000103093 0.00134021 0.00494845 0.00406504 0.00320456 0.00901964 0.00597439 0.00366961 0.000896923 0.00122945 0.00859827 0.00983261 0.00877798 0.00560555 0.0048937 0.00365138 0.00474644 0.00989543 0.0106539 0.00880669 0.0069094 0.00607948 0.00925735 0.0028866 0.00309278 0.0014433 0.00556701 0.00536082 0.00247423 0.00216495 0.00298969 0.00886598 0.00113402 0.0085567 0.00649485 0.00298969 0.00814433 0.00690722 0.00721649 0.00970293 0.00134745 0.00670103 0.00185567 0.00670103 0.00505155 0.000515464 0.00154639 0.00742268 0.00154639 0.00824742 0.0085567 0.00350515 0.00917526 0.00185567 0.00329897 0.0056701 0.00360825 0.00876289 0.0085567 0.00628866 0.000618559 0.00787573 0.0062978 0.0056804 0.00613293 0.00160402 0.00137253 0.000760957 0.00451756 0.0018605 -0.00089079 -0.00117871 0.0061367 0.00679939 0.00487149 -0.000540228 0.00791454 0.00368822 0.000419786 0.000206186 0.00876289 0.00154639 0.00608247 0.00309278 0.000824742 0.00350515 0.000955778 7.67604e-05 0.0054085 0.00715627 0.000127446 0.00148011 0.00393814 0.00354484 -0.0065089 -0.0112958 -0.00999781 -0.0101672 -0.010137 -0.00148294 1.52609e-05 -0.00296179 -0.00247916 0.00220532 -8.42857e-05 -0.00156815 0.00501681 0.00349744 0.00929816 0.00690722 0.00597938 0.00536082 0.00371134 0.0018284 0.00666122 0.00249903 0.00640118 0.00758046 0.00109531 0.00359123 -0.00460844 -0.00113509 -0.0184129 -0.0221433 -0.0214655 -0.0209859 -0.0158515 -0.00541273 -0.00274355 0.0138311 0.00444964 0.0115419 0.0180307 0.0147406 0.00438614 0.00034649 0.00312841 0.00467023 0.00268041 0.00525773 0.00319588 0.00805095 0.00955672 0.00564098 0.00839472 0.00218151 -0.000218631 -0.00774871 -0.00035779 -0.00391581 0.00226811 -0.00616554 -0.00685416 -0.00943453 -0.0151395 -0.0100709 -0.00759006 0.00558945 0.00488683 0.00691905 0.0290668 0.013336 0.0146031 0.028873 0.0115252 0.0104819 0.00897213 0.00814433 0.00134021 0.00689539 0.00510624 0.000507839 -0.00730064 -0.00882258 -0.00458988 0.00443895 0.000954346 0.0109438 0.0258447 0.00513879 -0.065715 -0.0608589 -0.0472906 -0.0432445 -0.0169264 -0.020763 -0.0276265 -0.00475723 -0.0026468 0.020435 0.0103978 0.0275507 0.0227294 0.00916241 0.000655574 0.000927835 0.00494499 0.000126681 0.00775647 0.0166141 0.0287479 0.0498855 0.0317515 0.0192359 0.0305836 0.0378055 0.0325022 0.00298967 -0.0418672 -0.0367458 -0.040887 -0.0236029 -0.00404166 -0.00446325 0.00635474 -0.0113773 -0.0284423 -0.00389454 0.0200785 0.0196751 0.0170096 0.00929168 0.00355644 0.00886598 0.00196642 0.00266583 -0.0025885 0.0427198 0.0865994 0.0357187 0.0346113 0.0267565 0.024773 0.0508099 0.0609822 0.00220507 -0.0285797 -0.0411447 -0.0308207 0.00427064 0.00320015 0.01162 0.0395972 0.0410137 0.00764991 -0.0037742 0.0128473 0.0271759 0.0284788 0.0107343 0.000842119 0.00602053 0.00109575 -0.00185086 -0.0092006 0.0628981 0.0379592 -0.0165561 -0.0111162 -0.0158401 -0.00797909 -0.0150885 -0.0223373 -0.0588519 -0.0568079 -0.0307467 -0.00409657 0.00824017 0.00633143 0.0321701 0.0620185 0.0680005 0.0324057 0.0340906 0.0379194 0.0474818 0.0362264 0.013294 0.010649 0.00340206 0.00224996 0.00703368 0.00968006 0.0846661 0.0155742 -0.00464984 -0.00763364 0.0100391 -0.00440817 -0.0404162 -0.0488743 -0.0659104 -0.0884187 -0.0713574 -0.0416977 -0.0257328 0.00656096 0.0052508 0.00681898 0.0316347 0.0293497 0.0623749 0.0652941 0.0500527 0.0289234 0.00798478 0.00642721 0.0085567 0.00515304 0.0105906 0.0187619 0.0894998 0.0179387 3.97672e-05 0.017258 0.0055044 -0.0167559 -0.0262456 -0.0430224 -0.0141916 -0.0545096 -0.0679539 -0.0453986 -0.0456287 -0.0622498 -0.0588396 -0.0397548 -0.0370654 -0.0111554 0.0303566 0.0292761 0.0293269 0.0275682 0.0163095 0.00615816 0 0.00896122 0.0088981 0.0188266 0.0523049 0.0401991 0.00625874 0.0277384 0.0275062 0.0169613 0.0156899 0.0294802 0.0477791 0.00750408 0.0129571 0.00816923 -0.0145969 -0.0258161 -0.0310399 -0.0521696 -0.0546375 -0.0338264 -0.013321 0.011819 0.0103475 0.0100202 0.0115525 0.00680937 0.00556701 0.00431171 0.00692335 0.0178403 0.030919 0.0511144 0.0521129 0.0764093 0.0694438 0.047948 0.0164325 0.0301715 -0.0250926 -0.0499586 -0.023043 0.0485449 0.0389638 0.0334085 -0.00563578 -0.0202817 -0.0232971 -0.02665 -0.0102047 -0.0109022 -0.0119712 0.00554205 0.00833978 0.00817713 0.000515464 0.00254307 0.00664578 0.0074807 0.0164511 0.0687243 0.0309649 0.0488428 0.0319568 7.37246e-05 -6.04333e-05 0.00310698 -0.0430297 -0.0936549 -0.0798602 -0.00181386 0.0487356 0.0280094 0.00556775 0.0176046 0.031625 -0.0119089 0.00354456 -0.0238906 -0.0263443 0.00571058 0.0089402 0.000445832 0.00319588 0.00611865 0.000567497 0.0106491 0.00292334 -0.00245122 0.000692751 0.00781679 -0.00514193 -0.0380219 -0.0285951 -0.027343 -0.0468149 -0.0519362 -0.0391935 -0.0261088 -0.0220827 -0.0147053 -0.0262587 0.00343351 0.047581 0.0286981 0.0254653 -0.0276182 -0.0293969 -0.00371929 -0.000908919 0.00365675 0.000823273 0.000104633 0.00652286 -0.0025336 -0.00238817 -0.034755 -0.0320797 -0.0094515 -0.0330924 -0.0417165 -0.0334898 -0.0267095 -0.0141808 -0.0294769 -0.0451274 -0.0314391 -0.0344221 -0.0678493 -0.0268003 0.0131011 0.00949342 0.0422831 0.0527818 -0.0177573 -0.0163105 -0.00162089 0.00317949 0.00711505 0.00906377 0.000478029 0.000499372 -0.00155681 0.00282122 -0.0315338 -0.0190107 -0.00512655 -0.0429978 -0.0821388 -0.0505722 -0.0467109 -0.0224389 -0.0502903 -0.0500151 -0.0143074 -0.0393146 -0.0506038 -0.0359438 0.0213934 0.0229515 0.0400839 0.0366729 0.0104294 -0.0129759 -0.00795234 0.00321353 -0.000180619 0.00216495 0.00321486 0.00698845 0.00496758 0.0140195 0.000512351 0.00510325 -0.00491011 -0.0275237 -0.0608565 -0.0654692 -0.0485799 -0.0479461 -0.0427291 -0.0400557 -0.0160563 -0.0057447 -0.00712724 -0.0202031 -0.00431981 0.0332109 0.0279912 0.0357653 0.0279358 -0.0135391 -0.00842137 -0.00201757 0.0032803 0.00210578 0.00917526 0.00454354 0.00736664 0.0208254 0.0218015 0.0350328 0.00500751 -0.0262479 -0.0585734 -0.050763 -0.0273362 -0.039794 -0.0349426 -0.0306867 -0.0301022 -0.0378379 -0.0291037 -0.0141455 -0.0141411 0.00743371 0.0069394 0.006706 0.0153746 -0.0146527 -0.00854885 0.0065321 0.00262826 0.00773196 0.00644652 0.0100121 0.00199121 0.0290131 0.0138754 0.0184884 -0.0192771 -0.0173432 -0.0419761 -0.0453276 -0.0466787 -0.041043 -0.0491855 -0.0493937 -0.0253064 -0.047165 -0.0250117 -0.02168 -0.0295047 -0.00463257 -0.0340296 -0.022078 0.02215 -0.00211622 0.00226354 0.0054532 0.00112831 0.00123711 0.00294344 0.00252133 0.010012 -0.00324608 0.0119504 -0.00410383 -0.0320215 -0.0165296 -0.0106984 -0.0500251 -0.0590364 -0.0482624 -0.0598998 -0.0652755 -0.0356761 -0.0590714 -0.0441358 -0.0268053 -0.00208145 0.0182369 -0.0285133 -0.0134496 0.0219508 0.00368695 -0.00131138 0.000227723 0.00536082 0.000927835 0.00337428 2.93715e-05 0.00256034 -0.00947188 0.00535499 0.00536457 -0.036953 -0.0199139 0.0164348 -0.0145913 -0.0357856 -0.0345139 -0.0572236 -0.0686259 -0.0256488 -0.0389377 -0.0273398 -0.0024933 0.0228888 0.0418958 -0.0356977 0.0104501 0.0228535 0.00183817 0.00442318 -0.000228333 0.00721649 0.00278351 0.00329897 0.00658796 0.000296952 0.00729138 0.000503033 -0.00279196 -0.021879 -0.0183922 0.0108985 0.0393364 0.00147936 -0.00347422 -0.0178381 -0.0244168 -0.0554933 -0.0302344 0.0176274 0.0346728 0.0601268 0.0332958 -0.0111985 0.0235562 0.00911893 0.00857989 0.00364023 0.00411004 0.00164948 0.00402062 0.00329897 0.00543875 0.00221269 0.0209299 0.0303527 0.00822621 -0.00880362 0.00160788 0.00914761 0.0398687 0.0129982 -0.043985 -0.0606673 -0.0681921 -0.0855548 -0.0229505 0.0156147 0.0533702 0.051785 0.021628 0.00840591 -0.000754394 -0.0114455 0.00789598 0.00784066 0.00366978 0.00474227 0.00360825 0.00536082 0.00438981 0.00440083 0.0145979 0.0100343 0.0119527 0.0154592 0.00812148 0.0120196 0.00399683 0.0425908 0.0329277 0.0332701 -0.0177793 -0.0378674 0.0241175 0.0400316 0.0807051 0.0257914 0.00235999 -0.00716282 -0.0126468 -0.0121852 0.0039865 0.00192393 0.00954242 0 0.00402062 0.00474227 0.0028054 0.00926021 0.00170447 0.00278515 0.0114029 0.0128355 0.0128055 0.0130099 0.0145448 0.0230954 0.0292972 0.0338183 0.0308379 0.0345238 0.0129765 0.0149409 0.0126163 -0.00440543 -0.00440675 -0.00143302 -0.00344287 -0.000852189 0.00939523 0.00327492 0.00355921 0.00618557 0.00948454 0.00340206 0.00701031 0.00619988 0.00424114 0.00612724 0.00343074 0.00633106 -0.00227453 0.00590199 0.00098448 0.00553143 0.00392997 0.0155494 0.0148621 0.0128482 0.0128911 0.00991635 0.0208864 0.00363665 -0.000896631 -0.0193467 0.000990514 0.00194094 0.00361433 0.00494845 0.00226804 0.00938144 0.0101031 0.00546392 0.00206186 0.00680412 0.00101527 0.00655891 0.00737711 0.00350988 0.00564687 0.00683246 0.0108465 0.00738418 0.00105525 0.00215454 0.00782317 0.00796113 0.00546522 0.00517957 0.00526849 0.00547373 0.0148053 0.00590271 0.00470735 0.010001 0.00969072 0.00742268 0.00742268 0.00690722 0.00680412 0.00329897 0.00103093 0.000618557 0.000412371 0.000206186 0.00103093 0.000618557 0.00958763 0.00793814 0.00701031 0.000309278 0.00524232 0.00380584 0.00515464 0.0057732 0.00814433 0.000206186 0.00536082 0.00319588 0.00608247 0.00690722 0.00247423 0.00896907 0.00907216 0.00484536 0.00896907 0.000824742 0.00278351 0.00525773 0.00381443 0.00917526 0.0057732 0.0086598 0.00377708 0.00580688 -0.00286198 0.00706366 0.00737111 -0.0086034 -0.0220306 0.00198541 0.00157769 -0.00880112 -0.0133426 -0.000864106 0.00590878 0.00384167 0.00355019 0.00664482 0.00525424 0.00737617 0.00391753 0.000618557 0.00865979 0.00649485 0.000412371 0.00164948 0.00154639 -0.000222154 0.00343102 0.00539561 -0.000493633 -0.00892768 -0.0438145 -0.0379111 -0.0477419 -0.0578046 -0.0720466 -0.0532236 -0.0576993 -0.0825419 -0.077305 -0.0628633 -0.0453506 -0.0151221 -0.0288595 -0.00319737 -0.00602698 -0.00237279 0.00652258 0.00815277 0.00896907 0.00309278 0.000103093 0.00391753 0.00426308 0.00549475 -0.000217981 0.0113659 0.0134279 0.0202217 -0.0067602 -0.0323536 -0.0332142 -0.0185962 -0.0358305 -0.0574251 -0.00356782 -0.035806 -0.0186988 8.35281e-05 0.0267744 0.0372628 0.0190439 -0.0339478 -0.0158814 -0.000709826 0.00188057 0.00361704 0.00285518 0.0042268 0.00824742 0.00783505 0.00857781 0.00929759 0.0102922 0.0232755 0.0500322 0.110392 0.0977526 0.090138 0.0970801 0.0445518 0.0379026 0.0626414 -0.00920972 -0.0655125 0.0210502 0.0147711 -0.0226918 -0.0402125 -0.070605 -0.0621515 -0.00848797 -0.0170525 0.0184192 0.012851 0.00512085 0.00735185 0.00412371 0.00195876 0.006401 0.0112157 0.0350221 0.0464341 0.0770995 0.142535 0.0511732 0.0109965 0.0751455 0.0191487 -0.0226125 -0.083564 -0.0722646 -0.055313 0.0351936 -0.0229221 -0.120461 -0.0565263 -0.0761397 -0.10331 -0.0377096 -0.000986393 0.0301989 0.0123355 0.00083478 0.0061173 0.00628866 0.00238498 -0.00219661 0.00472148 0.0105224 0.0135166 -0.00102014 -0.0201523 -0.0374052 0.000913954 -0.0375599 -0.108736 -0.107742 -0.105618 0.0419741 -0.0161324 0.0276447 0.0635822 0.0459917 -0.041188 -0.0590716 -0.0411642 -0.00140618 0.0399655 0.0411624 0.00793084 0.00136031 -0.0012002 0.00639175 0.0039555 -0.0103651 0.00111711 0.0164527 -0.0139978 -0.0978049 -0.114863 -0.102373 0.0464596 -0.154259 -0.135332 -0.140855 -0.0810847 0.0338717 -0.0292188 -0.147259 -0.217125 -0.0823254 0.0111252 -0.114939 -0.0774407 -0.0560004 -0.0251965 0.0275795 0.0325403 0.00910298 -0.00087904 0.00638557 0.00540597 -0.00959081 0.0107769 0.00639786 -0.0600916 -0.0326505 -0.0797188 -0.128144 -0.0561527 -0.0826557 -0.0863885 -0.107898 -0.0723632 -0.117481 -0.200583 -0.213218 -0.20285 -0.0214364 -0.0301383 -0.11293 -0.060253 -0.043323 -0.0843755 0.0209544 0.0354221 0.0158087 0.00658659 0.00618557 -0.00363336 -0.0181757 -0.0020276 -0.0118354 -0.0204737 -0.0182841 -0.0646206 -0.0923611 -0.0807127 -0.126383 -0.161397 -0.26281 -0.358363 -0.249171 -0.0837354 -0.0833176 -0.0390642 0.0221561 0.0634211 0.0242146 -0.0484083 -0.0479079 -0.0700716 -0.00164815 0.00162317 0.0175389 0.0020309 0.00185567 0.00488415 -0.0228418 -0.0130182 -0.0177966 -0.0695128 -0.0844848 -0.128872 -0.050551 -0.0214627 -0.0666782 -0.207862 -0.233009 -0.28915 -0.259549 -0.175421 -0.0969885 0.00649275 0.00706354 0.11006 0.0141207 -0.108674 -0.0855615 -0.0482246 0.0129744 0.0156676 0.00805368 0.00209823 0.00536082 -0.00283269 -0.00530627 -0.00800205 -0.008268 -0.101133 -0.0571783 -0.0276714 0.04204 0.0257657 0.0318184 0.0117 0.0461405 -0.0810623 -0.111797 0.00728475 -0.106054 0.0380449 -0.114786 -0.0134488 0.0479079 -0.0847552 -0.0999384 -0.0988442 0.00554811 0.0223941 0.0126351 0.00139234 0.00257732 0.00388919 -0.00312248 -0.0125011 -0.020854 -0.0456838 -0.0279253 0.0540599 -0.0734764 -0.0315144 0.0834822 0.120464 0.0528469 0.0442763 0.107034 0.0185658 -0.0278633 -0.0099711 -0.191222 -0.0464686 -0.0416255 -0.0870108 -0.130323 -0.0633224 -0.018849 0.0102834 0.00524329 0.00398544 0.00721649 -0.000862486 -0.00464154 -0.00714231 -0.0551674 -0.0818033 0.0658118 0.104383 0.0702219 -0.048004 -0.0605758 0.0248418 0.0252559 0.0361192 0.0424324 0.0711413 0.053123 -0.0609597 -0.153939 -0.053453 -0.0178263 -0.153968 -0.117334 -0.09285 -0.0670984 0.00326053 -0.00407162 -0.0012126 0.00103093 0.0129841 0.00289233 0.00837815 -0.0432397 -0.0868374 -0.017487 0.054643 0.0384126 0.108461 0.02852 0.0403751 0.0901817 0.102367 0.100892 0.100877 0.0659154 -0.0795649 -0.236085 -0.11878 -0.167843 -0.115083 -0.101824 -0.113447 -0.101805 0.00556471 -0.0126954 0.00902923 0.0018476 0.0153616 0.00674647 0.0195595 0.0283764 -0.10008 -0.0924626 -0.0477343 -0.0695023 -0.0294105 0.00592561 -0.0158678 0.00759142 0.102308 0.197587 0.0831887 0.000596011 -0.240261 -0.281484 -0.113213 -0.131708 -0.0868276 0.057922 -0.0339205 -0.0809612 -0.00956695 0.000420851 0.00250299 0.00995394 0.00383366 0.0217042 0.02668 -0.0205003 -0.14048 -0.102711 -0.0446836 -0.13589 -0.0611252 -0.0208045 0.00951603 0.0455099 0.0398757 -0.00121957 -0.153425 -0.188779 -0.177306 -0.118752 -0.139725 -0.134012 -0.066514 -0.00320551 -0.0223006 -0.0341757 -0.0434217 -0.0163744 0.00375686 0.00762887 0.00468631 0.024267 0.0250828 0.0117932 -0.0823588 -0.056804 0.0410616 -0.0142845 -0.12266 -0.251518 -0.290974 -0.207944 -0.155768 -0.169203 -0.220372 -0.0826463 -0.00962143 -0.0196986 -0.0144762 0.0162445 0.036495 -0.00595281 -0.016878 -0.0421538 -0.0765336 -0.00545717 0.00492525 0.00725645 0.00670103 0.0213156 0.0624728 0.0426949 0.0356482 0.0988133 0.0203121 -0.0613553 -0.174395 -0.247417 -0.233264 -0.262861 -0.230274 -0.254297 -0.238263 -0.0940033 -0.0567228 0.0616866 0.0703616 0.104487 0.0515938 -0.0223784 -0.070661 -0.0721102 -0.0531672 0.00224515 0.0020267 0.00443299 0.000505675 0.00526375 0.0944319 0.0397373 0.0782567 0.00981312 -0.0451147 -0.10978 -0.140985 -0.157592 -0.260004 -0.376103 -0.339946 -0.306579 -0.182088 -0.10171 0.011635 0.0456211 0.00365933 0.0167607 0.0351999 -0.0276338 -0.0165006 -0.0776838 -0.0392128 -0.00278044 0.00134704 0.00835052 0.00785863 0.00208337 0.0731517 0.000464723 -0.0137676 -0.017032 -0.0465552 -0.100804 -0.0424454 -0.103475 -0.251351 -0.367826 -0.296428 -0.197529 -0.159052 -0.0597835 0.0741402 0.0849996 0.00434599 0.0551349 0.0668155 -0.0164954 -0.0474154 -0.054049 -0.0196986 0.000786078 0.00917526 0.00845361 0.00735696 -0.0069226 0.0339267 0.0191245 -0.0474839 -0.0388591 0.0263077 0.0310511 -0.056496 -0.119033 -0.156357 -0.229208 -0.205132 -0.124957 -0.058098 -0.0943431 0.0598369 0.0744701 0.102586 0.0887167 0.0427714 -0.0237447 -0.0582859 -0.0356052 -0.020107 0.00119076 0.00278351 0.00329897 0.00268043 -0.00783501 0.0221849 0.0330239 -0.0303161 -0.0514188 -0.0163054 -0.0460891 -0.15807 -0.181005 -0.156861 -0.21622 -0.13121 -0.0660635 -0.12493 -0.093606 0.143649 0.185852 0.172158 0.105997 0.017254 -0.00529772 -0.0168289 -0.00749116 -0.00378697 0.00490757 0.00804124 0.00216495 0.00463918 0.0107755 0.0513788 0.072311 0.0538152 0.0595283 0.0651621 -0.00400798 -0.161159 -0.140674 -0.147874 -0.293011 -0.0857959 -0.0597373 -0.0830078 0.0371839 0.212626 0.256879 0.16411 0.101013 -0.0198248 -0.0218022 -0.0123481 -0.00208207 -0.00671597 0.00233207 0.00907216 0.00371134 0.00814433 0.0177999 0.0390969 0.0659416 0.0718788 0.141613 0.197395 0.121967 0.00704593 0.0398862 -0.0152194 -0.00709499 0.0808949 -0.0309556 -0.105372 0.00566718 -0.033286 -0.0169852 0.0313834 0.0760849 0.0228385 0.0108365 0.0049831 -0.000443822 -0.00101932 0.000880364 0.00628866 0.000206186 0.00185567 0.00684138 0.00831052 -0.0123462 0.0445576 0.063967 0.111289 0.112649 0.0826924 0.129516 0.0727327 0.0813657 -0.0195526 -0.126757 -0.181414 -0.23395 -0.25744 -0.0679239 0.107877 0.10929 0.00551145 0.00087224 0.0111104 0.00337745 -0.000280768 0.00626563 0.00494845 0.0057732 0.000309278 0.000103093 0.00258576 0.0156604 0.0218868 0.027649 0.0168905 -0.0107855 -0.0197644 0.00138052 0.0143102 0.0203778 0.0180679 -0.0159478 -0.0283029 -0.0643739 -0.096168 -0.0508838 0.0243648 -0.00180478 0.0096271 0.00667242 0.0107117 0.00365606 0.0043299 0.00659794 0.0014433 0.00958763 0.00515464 0.00340206 0.00134021 0.00825928 0.0011086 0.00654482 0.00501061 0.00198087 0.000976585 -0.00308081 0.00356332 -0.00449766 -0.0102157 -0.00217172 0.00423484 -0.00473935 -0.0304143 -0.0267888 0.00243706 0.00211009 0.00925267 0.00730098 0.00924425 0.00329897 0.00618557 0.00484536 0.00628866 0.00783505 0.00185567 0.00773196 0.00680412 0.00824742 0.00865979 0.000515464 0.00721649 0.00494845 0.00670103 0.00123711 0.0101031 0.00324961 0.00863535 0.00752577 0.0101031 0.00556701 0.00845361 0.00247423 0.00845361 0.00670103 0.00649485 0.00958763 0.00989691 0.00195876 0.00556701 0.000103093 0.00762887 0.00257732 0.00123711 0.00505155 0.00309278 0.000515464 0.00237104 0.00647924 0.00326045 0.00575916 0.00290636 0.00103804 -0.00358352 -0.00380531 -0.0133183 -0.00646269 0.00305668 0.0119262 -0.00117592 -0.0034593 0.00362492 0.00424897 -0.00189413 0.00464794 0.00787321 0.00731959 0.00876289 0.00701031 0.000309278 0.00783505 0.00670103 0.00896907 0.00580903 0.0100183 0.00597657 -0.000885716 -0.00144325 0.00659241 0.0169451 0.0222604 0.0155904 -0.0103185 -0.0267732 -0.0478048 -0.0697415 -0.0724086 -0.0623776 -0.0657022 -0.0738019 -0.040469 -0.0379385 -0.0225912 -0.00887011 0.00926423 0.0111994 0.00835052 0.000824742 0.00917526 0.00371134 0.0100927 0.00965905 0.00383991 0.00626019 0.011388 0.0261469 0.053234 0.0808167 0.100668 0.0910545 0.0407356 -0.0308557 -0.0928115 -0.199576 -0.0767537 -0.0470439 -0.0617528 -0.0385512 -0.0514601 -0.100434 -0.0810715 -0.0501289 -0.0200502 0.00745149 0.00393524 0.00731959 0.00917526 0.00371134 0.00703101 0.0108718 0.0128992 0.0353511 0.0756421 0.160649 0.211909 0.105129 0.0628865 -0.015077 -0.0135865 -0.0474735 -0.098454 -0.223426 -0.196222 -0.205223 -0.207103 -0.246523 -0.30718 -0.30163 -0.252326 -0.106818 -0.0321254 0.0231875 0.0100907 0.00173436 0.000927835 0.00164948 0.00934097 0.0162102 0.0503969 0.069873 0.152571 0.226328 0.0578247 -0.119446 -0.0312046 -0.0504189 -0.120991 -0.124447 -0.137725 -0.230744 -0.0835923 -0.142358 -0.230988 -0.166343 -0.172122 -0.249171 -0.19856 -0.108374 -0.0452626 0.0109433 -0.000174381 0.00470978 0.00752577 0.00695338 0.00393153 0.0263587 0.0611387 0.052464 0.0927364 0.0596588 -0.0630108 0.036847 -0.0170289 -0.155115 -0.138202 -0.102564 -0.133344 -0.140857 0.0422802 0.0038173 -0.00436913 -0.139191 -0.140138 -0.159977 -0.185246 -0.114688 -0.0479693 -0.016504 -0.0090229 -0.00203081 0.00907216 0.0132973 -0.000289916 0.0310533 0.0958966 0.0652266 0.0656768 0.054845 -0.0488977 -0.00121668 -0.0065228 -0.0982885 0.0587763 0.0595191 0.0278348 -0.0206814 -0.0027091 -8.92065e-05 -0.0263615 0.0400555 -0.0893598 -0.164157 -0.171029 -0.204741 -0.138496 -0.0330176 -0.0165638 0.00500347 0.0014181 0.0082634 0.00649138 0.0300432 0.12705 0.0681389 0.0723465 0.0592462 -0.0192954 -0.00108365 0.0495771 -0.0221075 0.0964992 -0.0242396 0.00801406 -0.110906 -0.00942688 0.0688713 0.0207926 0.0396991 -0.0182008 -0.126972 -0.143847 -0.172709 -0.162188 -0.0523741 0.00277861 0.00785647 0.00103093 0.0118854 0.0200457 0.0423011 0.15686 0.157277 0.173865 0.040195 0.0415314 0.0921188 -0.0165886 -0.109296 -0.123307 -0.311257 -0.147624 -0.118575 0.0313501 0.0521356 -0.0517773 0.0616169 0.0577878 -0.0583316 -0.0543193 -0.0354634 -0.102515 -0.00729278 0.0146245 0.00343709 0.00701031 0.00595213 0.0144112 0.0463855 0.0962626 0.139663 0.0836478 -0.10717 -0.126567 -0.119473 -0.16235 -0.296318 -0.430882 -0.3864 -0.10855 -0.230198 0.0413391 0.0939184 0.0797449 0.170078 0.0903426 -0.097262 -0.0989487 -0.0125018 -0.0289959 0.00839782 0.0206936 0.00930895 0.00752577 0.00827208 0.00204055 0.0366144 0.0724945 -0.0342887 -0.139045 -0.257598 -0.289179 -0.235365 -0.409388 -0.293157 -0.344551 -0.270404 0.0104333 -0.128496 -0.0138388 0.0328937 0.00404332 0.106012 0.00689028 -0.224704 -0.134507 -0.0298908 0.00201767 0.0405062 0.0287841 0.00851487 0.0042268 0.00820674 0.00810728 0.0100508 0.0532331 -0.0477171 -0.268384 -0.281403 -0.239439 -0.293683 -0.278769 -0.280933 -0.307933 -0.0846527 0.0924281 -0.0576629 0.073008 -0.0380918 -0.0684531 0.00176621 -0.189757 -0.318349 -0.284108 -0.121518 -0.00510758 0.0584171 0.0279124 0.00501351 0.00597938 0.00571006 0.000698204 -0.00209414 -0.0276992 -0.143544 -0.325472 -0.306872 -0.169712 -0.223895 -0.258255 -0.220799 -0.0984533 0.122531 0.178485 -0.135888 0.0687439 -0.0818774 -0.119773 -0.167071 -0.276419 -0.253114 -0.312545 -0.0962088 -0.014096 0.0434384 0.0320215 0.0128101 0.00402062 0.00608553 0.0117879 0.00140037 -0.0613475 -0.176709 -0.284897 -0.238249 -0.151749 -0.0551081 -0.097405 -0.0833573 0.124062 0.0738086 0.133142 0.0117002 -0.0113733 -0.0971396 -0.0925378 -0.125932 -0.268402 -0.184937 -0.227934 -0.0318547 -0.0241305 -0.00533627 0.0369312 0.00733499 0.00485206 0.0190359 0.00704813 0.00856902 -0.00549491 -0.0218305 -0.0943657 -0.172976 -0.199924 -0.166427 -0.122984 -0.0678922 -0.082988 0.0374941 0.189717 -0.0204994 -0.111991 -0.214877 -0.238902 -0.0374647 -0.128873 -0.158907 -0.0686137 0.0300249 0.0238241 -0.0123357 0.0494148 0.0083922 0.00818256 0.011706 0.0333648 0.062218 0.0900951 0.05011 -0.00816041 -0.143136 -0.22935 -0.115338 -0.0735099 -0.147001 -0.0291264 0.0561898 -0.0815428 -0.298442 -0.2031 -0.0928187 -0.0463104 0.175688 -0.148657 -0.0644006 -0.01061 0.11956 0.102832 0.0422052 0.0612968 0.0172405 0.00536082 0.00199424 0.0332869 0.101099 0.17323 0.0986547 -0.00652864 -0.0928543 -0.114686 -0.259842 -0.340951 -0.301295 -0.148783 -0.167007 -0.347003 -0.238641 -0.11331 -0.0344648 0.0162783 0.246176 -0.0590443 -0.0253925 0.00206209 0.0820357 0.102511 0.073034 0.0297192 0.00247129 0.00510311 0.00886598 0.0154509 0.160413 0.238088 0.202189 0.101868 0.0072195 -0.109552 -0.250008 -0.31137 -0.357639 -0.365416 -0.367602 -0.213538 -0.144602 0.00460466 0.0243927 0.140489 0.161339 0.0114976 -0.0165187 0.0255358 0.0785813 0.0885723 0.0928898 0.0136118 0.00826206 0.00257732 0.00823111 0.00298306 0.189478 0.210133 0.185378 0.0975357 0.0730993 -0.0369223 -0.115305 -0.175 -0.319337 -0.371326 -0.121609 -0.115562 -0.00044006 0.00285608 0.0703853 0.00457162 0.00800026 0.0324889 0.0148548 0.0336921 0.011991 -0.0553642 0.0463184 0.0203625 0.00829228 0.00628866 0.00976982 0.00564283 0.171521 0.18748 0.152508 0.144889 0.129409 0.054966 -0.012573 0.00829437 -0.08418 -0.1673 -0.0867715 -0.0724761 -0.0593886 -0.0194967 -0.00612684 0.0338631 -0.0334896 -0.0178738 -0.048671 -0.0148537 0.0695787 -0.0574885 0.0151688 0.0286175 0.00329897 0.00453608 0.00273099 -0.000802563 0.0801767 0.0874698 0.0236594 0.0297618 0.0366783 -0.0511085 -0.0771125 -0.0575262 -0.0243617 -0.0884912 -0.171242 -0.171021 -0.173883 -0.146267 0.0110331 0.105333 0.0230401 -0.111972 -0.0505721 0.0956949 0.0628521 -0.00997195 0.0237128 0.0012358 0.00546392 0.00597938 0.00958772 0.00454337 0.0315346 0.0571559 0.0541465 -0.0435117 0.00510583 -0.0755275 -0.0492056 -0.00391982 0.0694303 -0.0738317 -0.192973 -0.201076 -0.0474276 -0.0373968 0.081122 0.145059 0.0161913 0.00590529 -0.0504843 0.081058 0.0403736 0.0257854 0.0122828 0.00222831 0.0056701 0.00886598 0.00381443 0.0181083 0.0500684 0.103842 0.121345 0.11226 0.128481 -0.0522722 -0.105709 -0.0417491 -0.0550609 -0.263577 -0.146593 -0.184172 0.0128394 0.0178048 0.0513424 0.185841 -0.0187257 -0.0725642 -0.117534 0.0164203 0.0274576 0.0251272 0.0126261 0.00631078 0.00154639 0.00237113 0.00670103 0.0162964 0.0427649 0.100384 0.122398 0.183636 0.16764 0.0907802 -0.00679304 -0.0515841 -0.0427514 -0.0788682 -0.137871 -0.163131 -0.0528545 -0.0456287 0.013436 -0.0134318 -0.0854925 -0.212841 0.00136319 0.0074541 -0.00524702 0.0121283 0.0109853 0.00749946 0.00814433 0.00298969 0.00381443 0.001234 0.00328353 0.0210942 0.0335907 0.0663043 0.143291 0.195553 0.201896 0.13479 0.107535 0.100172 -0.0800268 -0.140181 -0.105924 -0.037473 -0.0333386 -0.0225878 0.0281066 -0.00518725 -0.0170474 -0.0139107 -0.0112036 0.00735672 0.00191078 0.00323793 0.00670103 0.00494845 0.00453608 0.00639175 0.00288709 -0.00161544 -0.00761562 -0.0153722 0.0112913 0.0209087 0.0234646 -0.0294928 -0.0467666 -0.0475742 -0.0294785 -0.0205364 -0.00334648 0.0283996 0.0278551 0.0415365 0.0337163 0.0049974 0.00794379 0.00452982 0.0026432 0.000751898 0.00670103 0.00195876 0.00360825 0.00958763 0.00546392 0.0042268 0.00618557 0.00304557 0.00302826 0.00999566 0.00552574 0.00555986 0.00806839 0.012584 0.0109122 0.0190695 0.0180196 0.0155941 0.00625298 0.00966754 0.00819472 0.0156835 0.0115395 0.00131908 0.00574454 0.00240497 0.0060641 0.00185567 0.00494845 0.00546392 0.00731959 0 0.00329897 0.00886598 0.00907216 0.00484536 0.00804124 0.00412371 0.0102062 0.00814433 0.00546392 0.0057732 0.00371134 0.00654023 0.00391379 0.00195876 0.00350515 0.00484536 0.00154639 0.00690722 0.00298969 0.00896907 0.00154639 0.00195876 0.00412371 0.00597938 0.0071134 0.0085567 0.00886598 0.00298969 0.00505155 0.00876289 0.00752577 0.00216495 0.0085567 0.00543601 0.00825207 0.00472403 0.00916471 0.00691296 0.00466095 0.00243267 0.00291187 0.007776 0.00633371 -0.000533221 0.00974213 0.0105528 0.0105076 0.00211738 0.00500653 0.00312474 0.00687438 0.00134021 0.00350515 0.00979381 0.00309278 0.00113402 0.00927835 0.00381443 0.00290281 0.00610865 0.00784722 0.00168283 0.00718072 0.00572955 -0.000586101 -0.00138715 0.00212431 0.00843126 0.00758924 0.00598805 0.00870316 0.00935225 0.00759428 0.00742236 0.0138517 0.0120157 0.00877052 0.00573219 0.00909442 0.00120187 0.00670542 0.00505155 0.00515464 0.00876289 0.00309278 0.00122183 0.00103382 0.00655312 0.00931795 0.00653211 0.0139765 0.00899501 -0.0145559 -0.023459 0.00297973 0.00958664 0.0131262 0.0157948 0.0130836 0.000997629 0.00692514 0.00604195 0.0205038 0.0329052 0.0182446 0.00908186 0.00846718 0.00241428 0.0064252 0.00797344 0.000103093 0.00804124 0.01 0.00420259 0.00179427 0.00654046 0.0127952 0.00743432 0.0202571 0.0188556 0.000484456 -0.000295393 0.0101482 0.00294647 0.00326165 -0.027891 0.0186561 0.0177301 -0.0183465 -0.0160015 -0.00247334 -0.0282643 -0.0315457 -0.000174775 0.000701177 -0.00085927 -0.00595414 -0.00138164 0.0090381 0.00536082 0.00927835 0.0080339 0.0107851 0.0135099 0.0300935 0.0247669 0.0148599 -0.0174164 -0.0373959 -0.0476234 -0.0769617 -0.0703152 -0.0621728 -0.038837 -0.00570146 -0.0213059 -0.0617356 -0.056863 -0.0357091 -0.0607527 -0.0647481 -0.0418074 -0.00851943 -0.0117463 -0.0091172 0.00493877 0.00574853 0.00371134 0.00642668 0.00216559 0.00958322 0.0140707 0.0325294 0.0274109 -0.00728955 -0.00427903 -0.0231352 -0.0253567 -0.0138057 -0.0283342 -0.0432305 -0.0377329 -0.00922618 0.0160735 0.00551476 -0.036968 -0.0581655 -0.059728 -0.0391501 -0.0333527 -0.0311275 -0.0274746 -0.0179311 0.00342895 0.00138321 0.00257732 0.0064906 0.00195925 0.0128031 0.0212495 0.0303047 0.0190738 -0.00546478 -0.056385 -0.0165192 -0.0163797 -0.0175585 -0.0250556 -0.0546246 -0.0142976 -0.00732227 -0.00953281 0.0201056 -0.00642949 -0.0288274 -0.0162962 -0.0676166 -0.0544483 -0.0322375 -0.0277132 -0.011259 0.00490452 0.00712448 0.00590015 0.00409603 0.00790577 0.0226644 0.0216624 0.0132215 -0.0145119 -0.000728194 -0.0428779 -0.0290992 -0.0392315 0.00358598 0.0118959 0.00813006 0.0151505 0.0141497 0.048923 0.0677479 0.016622 -0.0384092 0.00658544 -0.00999776 -0.0401408 -0.0524105 -0.0277302 -0.00932388 -0.00241747 0.00444685 0.000824742 0.00465758 0.0219659 0.0185745 0.0143341 -0.0280855 -0.0342519 -0.031396 -0.0404556 -0.0718694 -0.0752456 -0.0702175 -0.0305257 -0.00546861 0.023292 0.078791 0.0959452 0.0491976 -0.0120304 0.0348697 0.0243711 0.00930593 -0.0350108 -0.0367715 -0.0168634 -0.0196906 -0.00410969 0.00648611 0.00659794 0.00757301 0.0184678 0.00661545 -0.00811329 -0.0307887 -0.0536459 -0.067821 -0.081087 -0.104424 -0.0973646 -0.11172 -0.0672494 -0.0193442 -0.0150757 0.0131839 0.0117689 0.00915797 -0.055005 -0.0941338 -0.0141828 -0.0344919 -0.0256123 -0.0418547 -0.0226199 -0.00825565 -0.00502571 0.00586366 0.00948454 0.00441211 0.0105751 -3.04615e-05 -0.0216174 -0.0706446 -0.0763815 -0.0831062 -0.110722 -0.146156 -0.0849462 -0.0249238 0.00792596 0.0247543 -0.0220206 -0.0441073 -0.0380852 0.00465675 -0.0421831 -0.0761698 -0.00364864 -0.0317853 -0.0519749 -0.0477479 -0.0271356 -0.00896203 -0.00683382 0.00809956 0.00164948 0.00582892 -0.00182881 -0.0103125 -0.0488021 -0.064919 -0.0491035 -0.0418086 -0.0945803 -0.116002 -0.00631595 0.073831 0.0907197 0.000786697 -0.0439134 -0.0240807 -0.0262749 -0.0423161 -0.0496621 -0.0749191 -4.20385e-05 0.00564951 -0.031662 -0.0291127 -0.0197072 -0.00862865 2.92162e-05 0.00515338 0.00659794 0.00470537 0.00620731 0.00708411 -0.0394001 -0.0259494 0.0163891 0.0211389 -0.0463026 -0.0443142 0.0433947 0.073728 0.0286278 -0.100617 -0.0909764 -0.0648358 -0.0481087 -0.0556694 -0.0468022 -0.0682385 -0.000795882 0.0208497 -0.0347917 -0.00175251 -0.00363175 -0.0165937 -0.00199769 0.00557291 0.00752577 0.0103479 0.00550962 0.00648689 0.0140744 0.0290161 0.0161013 0.020189 0.0281487 0.0752105 0.0633094 0.0341611 -0.00971971 -0.106186 -0.0970456 -0.0581735 -0.0366964 -0.0118356 -0.0598388 -0.0215608 0.0188547 0.0467527 0.0101783 0.0344026 0.0188021 -0.00402984 -0.0114218 0.00993705 0.000105048 0.0115461 0.0119209 0.00891875 0.0281016 0.00786597 -0.0266685 -0.0024653 0.0157405 0.0377404 0.0275775 0.0318064 -0.0114729 -0.104733 -0.0670013 -0.0653243 -0.0428093 -0.00600522 0.00711165 0.0224782 0.076049 0.0542092 0.0700067 0.0613017 0.0137947 -0.0102012 -0.0125906 0.00672068 0.000629718 0.0108528 0.0106323 0.0121407 0.000125895 -0.00635855 -0.0263168 -0.032939 -0.0168421 0.0159238 -0.0265841 0.00842551 0.00451475 -0.0752973 -0.0633867 -0.0499355 -0.0793128 0.0185515 0.040006 0.0464879 0.0501191 0.0443297 0.0549284 0.0299713 -0.00659056 -0.0331577 -0.012717 0.0013235 0.000515464 0.00758577 0.0159362 0.0134549 0.0138265 -0.011284 -0.043736 0.000116091 -0.0449083 -0.0428007 -0.0604998 -0.0650807 -0.0576966 -0.106223 -0.0722636 -0.0543948 -0.0163621 0.0327943 0.0178941 0.0346102 0.0257305 0.0156182 0.0195362 0.00311543 -0.0408385 -0.0413048 -0.00191365 0.00378608 0.0101025 0.000721649 0.0117066 0.0249913 -0.00454869 -0.0228227 -0.0378139 -0.0560704 -0.0159707 -0.047166 -0.0813011 -0.0828517 -0.111653 -0.0876539 -0.0492635 0.00455273 0.0723793 -0.0154901 -0.0410945 -0.0070652 -0.00907314 -0.0227022 -0.0480654 -0.0757192 -0.0620809 -0.031478 0.00466882 0.00387379 0.0056701 0.00358386 0.00807548 0.026066 -0.00538718 -0.00397619 -0.0393566 -0.0819336 -0.0315295 -0.0286141 -0.0240246 -0.0363436 -0.0723106 -0.0648353 0.0214419 0.00643096 0.0019862 -0.075295 -0.0662755 -0.0162802 -0.0649271 -0.0810672 -0.0892424 -0.0702763 -0.0463488 -0.0201315 0.00277848 -0.00021743 0.00309278 0.00568414 -0.00319289 0.0141239 -0.0244694 -0.0425597 -0.0624733 -0.0803774 -0.0674323 -0.0324511 0.00971511 -0.00160045 -0.0223657 -0.0255795 0.00812666 -0.00705164 -0.0138128 -0.0350231 -0.0280082 -0.0442382 -0.0510334 -0.0702544 -0.0882692 -0.0731825 -0.0391499 -0.00641141 0.00885712 0.00226804 0.00773196 0.00502006 -0.00703096 0.00147815 -0.0248992 -0.0416383 -0.0800133 -0.067073 -0.0531039 -0.0582396 0.0128925 0.0601159 0.0220774 -0.0139323 0.0114057 0.0364891 0.0373842 0.0120739 -0.00833752 -0.0128789 -0.00981512 -0.0650802 -0.0901607 -0.0738363 -0.0246693 -0.00819151 0.000919616 0.00608247 0.00979381 0.00597938 -0.00207415 0.00272701 -0.00768773 -0.0236876 -0.055117 -0.0642392 -0.0901046 -0.0422224 0.00327187 -0.00332429 -0.00958222 0.00815027 0.0273211 0.0954934 0.0620742 0.0359271 -0.0144394 -0.0100948 -0.0469862 -0.0872597 -0.0502293 -0.0378561 -0.0176882 -0.00434919 0.00535696 0.0085567 0.0071134 0.00134021 0.0037902 0.0132099 0.0196674 0.013788 0.0318489 0.0107078 -0.0571839 -0.0277649 0.0284981 0.0265112 -0.0166613 0.0425912 0.0598176 0.00966578 -0.0282037 -0.00872528 -0.0379622 -0.0560224 -0.0854781 -0.0797599 -0.056578 -0.0262354 -0.0083068 -0.00275114 0.00701979 0.00309278 0.00556701 0.00680412 0.0106104 0.021613 0.0309841 0.0473235 0.0708853 0.0783983 0.0587622 0.0528493 0.077364 0.0376453 -0.0043936 0.0109232 -0.0448752 -0.0842012 -0.0898138 -0.0629863 -0.0695687 -0.059946 -0.0449854 -0.03464 -0.0272367 -0.00357336 -0.00511588 -0.0021732 0.00722625 0.00876289 0.00113402 0.00309278 0.00714686 0.0064647 0.00939906 0.0255175 0.0265727 0.0470365 0.0699379 0.0589041 0.0469788 0.0134393 0.0204822 -0.00316304 -0.0582938 -0.0823772 -0.0645335 -0.0592804 -0.0249074 -0.0156602 -0.00716958 -0.00209932 0.00164681 0.00853647 0.0052836 0.00790306 0.00212478 0.00494845 0.00793814 0.00103093 0.00649485 0.00708255 0.00878625 0.0071486 0.00373545 -0.00233867 -0.00231732 -0.00571246 -0.0198778 -0.0195581 -0.00694769 -0.000252844 -0.015718 -0.00571301 -0.0102405 -0.00187345 0.000674379 -0.0025164 -0.00123797 0.000501239 0.00178057 0.00879865 0.0100853 0.00979381 0.00958763 0.00721649 0.00886598 0.00814433 0.00958763 0.00319588 0.00493831 0.00590328 0.00628366 0.0014269 0.00696813 0.00341807 0.00650461 0.00063462 0.0074054 0.00746202 0.00192087 0.00362765 0.00481696 0.000436405 0.0105023 0.00226125 0.00344243 0.00298384 0.00490991 0.00713488 0.00381443 0.00896907 0.00969072 0.0056701 0.00556701 0.00391753 0.00938144 0.0085567 0.00505155 0.00536082 0.000927835 0.00597938 0.00154639 0.00515464 0.00639175 0.0057732 0.00443618 0.0085442 0.00762887 0.000515464 0 0.00371134 0.00835052 0.00876289 0.00587629 0.00804124 0.00381443 0.00319588 0.00649485 0.00927835 0.000412371 0.0085567 0.00247423 0.00587629 0.0101031 0.000412371 0.00103093 0.00391752 0.00407842 0.00540824 -0.0071969 0.00236147 0.00152174 0.00961665 0.00253945 0.00788742 0.00438936 -0.00323564 0.00664884 0.00570694 0.00817099 0.00668146 0.00365662 0.00239223 0.00958549 0.00247915 0.00639175 0.00402062 0.00824742 0.00412371 0.00917526 0.00402062 0.00278351 0.00901968 0.00515079 0.00395595 0.0087534 0.00483453 -0.00226351 0.00369053 0.00102081 -0.0012524 -0.00340063 -0.00997852 -0.01784 -0.0194465 -0.00565728 0.00368308 -0.00225962 -0.00289478 -0.00403306 0.00314794 0.00314194 0.000180043 0.0055871 0.00817994 0.01 0.00876289 0.000515464 0.0014433 0.00063907 0.00449414 0.00283554 0.00333742 -0.00106185 -0.00245511 -0.00633273 -0.00657298 0.00628697 -0.0173924 -0.0318282 -0.0275694 -0.032299 -0.0309329 -0.0193081 -0.00692182 -0.00578906 -0.00440148 -0.00465477 -0.00360018 -0.00059082 0.00648898 0.000584118 0.00243527 0.00293063 0.000721649 0.000927835 0.000309278 0.00395965 0.0069999 0.00473574 5.11564e-05 0.000913189 -0.00275156 -0.0235615 -0.0252463 -0.0191421 -0.0225008 -0.0194828 -0.0475737 -0.0462902 -0.0454621 -0.0414545 -0.0183254 -0.00379371 -0.0122605 0.000866858 0.00651063 0.00895408 0.00594116 0.0145112 0.0118289 0.00950506 0.00990087 0.00206186 0.00628866 0.00107454 0.000419344 -0.00490209 0.000865102 -0.0173287 -0.0245145 -0.00180921 -0.000132703 0.0423777 0.0575929 0.021097 -0.0131289 0.00305795 -0.0425956 -0.0668198 -0.031178 -0.0269438 -0.0489242 -0.0115171 -0.00520596 0.00460966 0.00787585 0.0133575 0.0107991 0.00805191 0.00436908 0.0014433 0.00225312 0.0101773 0.00466055 -0.0033 -0.00191882 0.00160562 0.043449 0.0772696 0.0590096 0.0543445 0.0343804 0.0231792 0.0146309 0.0288 0.00383414 -0.0259511 -0.0321197 -0.026479 0.0199498 0.0208876 0.00528734 -0.012547 0.00371152 0.0180538 0.0130631 0.00376655 0.00762125 0.00298969 0.00900719 0.00946562 -0.00140941 0.00685014 0.0138559 0.0442793 0.0719318 0.0552779 0.0359938 0.0295648 0.0152042 -0.0161594 -0.0523572 -0.043613 -0.00396598 0.022306 0.0327905 0.019878 0.0338068 0.0531251 0.0396437 -0.00667584 -0.0218879 0.0198938 0.0187763 0.0133857 0.00103085 0.00786501 0.00736492 0.00302991 0.00829938 0.00196958 0.0330168 0.0693119 0.0680902 0.0583904 0.0438926 0.0250704 0.0262627 -0.0145924 -0.0630032 -0.023558 0.0290409 0.0433 0.032664 0.0112308 0.0103206 0.0292565 0.0422543 0.00273729 0.0158752 0.0228126 0.0194753 0.00729535 0.000379149 0.00896907 0.00574122 0.00972421 0.00629751 0.00708451 0.0410308 0.0705778 0.0731048 0.0606062 0.0600339 0.064261 0.0423609 0.0104063 -0.0509885 -0.0583236 -0.0263838 -0.00974255 -0.00633326 0.00260568 -0.012984 -0.0147113 -0.0046739 0.0205509 0.0249711 0.0292758 0.0135367 0.00776471 0.000663932 0.00298969 0.00555222 0.00907185 0.0075211 0.00187651 0.00599842 0.0226289 0.0284499 0.0338456 0.038507 0.032337 0.0102824 0.0166186 -0.0624982 -0.0909221 -0.0913073 -0.0485003 -0.0395695 -0.0615906 -0.0784779 -0.0597839 -0.00405388 0.0294246 0.0237186 0.020806 0.0184607 0.00915566 0.00736295 0.00216495 0.0033206 0.00543606 -0.00014374 -0.00720899 -0.0208057 0.00128855 0.0008553 -0.0132398 -0.00849663 -0.00877077 -0.0375815 -0.053368 -0.100559 -0.098256 -0.0457592 0.00450974 -0.0268998 -0.0622702 -0.0625484 -0.0570369 0.00183938 0.0318924 0.0133987 0.00801849 0.0069491 0.0048691 0.00876649 0.0102062 0.00610431 0.00809113 0.00600124 -0.0121225 -0.00521314 0.0170946 -0.0185192 -0.0117196 -0.0186663 -0.0278544 -0.0410765 -0.0896228 -0.163091 -0.170984 -0.066038 -0.00148338 -0.0185649 -0.0496165 -0.027248 -0.0117312 0.00561029 0.0132739 0.00905839 -0.00545705 0.00577246 0.0124284 0.00424443 0.00195876 0.000164127 0.00472477 0.00146736 -0.013535 -0.000343553 -0.00284669 -0.0236606 -0.0253755 -0.00979961 0.00277735 0.0149663 -0.0208612 -0.120822 -0.152727 -0.133533 -0.0478199 -0.0129146 -0.00387591 -0.00593956 -0.00456355 -0.0220915 -0.0102919 -0.00919727 -0.00705798 -0.00163352 0.00912521 0.0105073 0.00360825 0.00273024 0.00385204 -0.00380749 0.00529967 0.0093705 -0.0101786 -0.038445 -0.0534442 -0.0411262 -0.0162299 0.0145497 -0.0284938 -0.0869318 -0.104358 -0.0902141 -0.0492647 0.00310095 0.0341868 0.0184549 0.00339159 -0.031256 -0.00916537 -0.0161134 -0.00502138 0.000563101 0.0117989 0.00497674 0.00628773 0.00721402 0.00478542 0.000241501 0.00567852 0.000312278 -0.012372 -0.0615166 -0.0707269 -0.0243931 -0.0233449 -0.0386772 -0.0394858 -0.0849057 -0.106254 -0.0582203 0.00106985 0.0238693 0.0231486 -0.00541454 -0.00106597 -0.0142953 0.000353929 -0.00613039 -0.0053622 0.000159744 0.0127181 0.00967303 0.000407035 0.00744292 0.00622234 0.00338883 0.00375088 0.00382065 -0.0143624 -0.0447726 -0.048464 -0.0801297 -0.0611158 -0.0436068 -0.0340989 -0.0601248 -0.0525076 0.00693567 0.0296327 0.0188249 -0.02187 -0.0161072 -0.00273256 -0.0044718 -0.00235307 -0.000380647 -0.00781628 0.00730654 0.0111631 0.0110462 0.00701031 0.00646256 0.00229202 -0.00497742 -0.00867464 0.00157066 -0.00617303 -0.032629 -0.0543962 -0.0312863 -0.00684164 0.013924 0.0155951 -0.0269624 -0.0495356 -0.00473536 -0.00355994 0.0247548 -0.00399297 -0.0277357 -0.0080581 -0.0273477 -0.0287216 -0.0211676 0.00577284 0.0102745 0.0101879 0.00467315 0.0100795 0.00525773 0.00471915 -0.00447398 -0.00552029 -0.0117065 -0.0101056 -0.035356 -0.0334666 -0.0206539 0.0120852 0.0358051 0.0278592 -0.0197242 -0.0292665 -0.00462353 -0.0182377 0.000923588 -0.0310918 -0.0325862 -0.0220913 -0.0513959 -0.0678275 -0.0246408 0.0196938 0.0131097 0.0039303 0.00467914 0.00969072 0.000725735 0.00637486 -0.00294121 -0.000584749 -0.0019451 -0.0175259 -0.0224632 0.00843972 -0.0173142 -0.0105959 0.0137938 0.0033179 -0.0458954 -0.0632676 -0.0307414 -0.00472682 -0.0200547 -0.0568281 -0.0382678 -0.0101711 -0.0364648 -0.0623854 -0.0196381 0.0155098 0.000941082 0.00488625 0.00846988 0.000412371 0.00791282 0.000987321 -0.0035691 0.00074799 -0.0202478 -0.0251399 -0.0198191 0.0117011 0.0113377 0.00551593 -0.0276617 -0.0215304 -0.050674 -0.0648905 -0.0187461 -0.00389747 -0.0403103 -0.0570179 -0.0351118 -0.035567 -0.0252934 -0.0196946 0.0127003 0.00444259 0.00375981 0.00704971 0.000927835 0.00989691 0.00280167 0.00904896 0.00187264 -0.0179869 -0.0275811 -0.0349711 -0.0290162 0.000575374 0.0367103 0.0452038 -0.0192155 -0.0106461 -0.0144154 -0.0285935 -0.0379285 -0.028165 -0.0351461 -0.0505389 -0.0381105 -0.0325293 -0.0165231 0.00772553 0.032232 -0.00358427 0.000586186 0.00628118 0.00515464 0.00185567 0.00876288 0.00747943 0.0050923 -0.0118576 -0.0238227 -0.0154229 -0.028306 -0.0124672 0.00473022 0.0198548 0.0180774 0.0104696 -0.00376424 -0.00938536 -0.0483599 -0.0171118 -0.0462658 -0.0652349 -0.0423109 -0.0264339 0.00797788 0.0268369 0.00100241 -0.0160489 -0.0152524 0.000679094 0.00938144 0.00247423 0.00927835 9.46158e-05 4.66776e-06 0.00862817 0.00656859 0.00613973 0.00619245 0.0039382 -0.0211644 -0.0345449 0.0152376 0.0376233 0.00397599 -0.00896974 -0.0429702 -0.00168805 0.00783025 0.00509746 0.0119129 0.0293119 0.0475283 0.0133745 0.000320622 -0.0182815 -0.0142662 0.0055942 0.00783505 0.00505155 0.00463918 0.00305723 0.00366671 0.00301599 0.00712912 0.00750663 0.00715789 -0.013555 -0.0273141 -0.0377727 -0.0141614 -0.00555672 -0.0143819 -0.0212257 0.00120169 0.0561932 0.0691629 0.0627837 0.0438376 0.0339757 0.0276643 0.0130069 0.00703979 0.00393685 0.00403559 0.00406193 0.00835052 